{"learner":{"attributes":{"scikit_learn":"{\"_estimator_type\": \"regressor\"}"},"feature_names":[],"feature_types":[],"gradient_booster":{"model":{"cats":{"enc":[],"feature_segments":[],"sorted_idx":[]},"gbtree_model_param":{"num_parallel_tree":"1","num_trees":"250"},"iteration_indptr":[0,1,2,3,4,5,6,7,8,9,10,11,12,13,14,15,16,17,18,19,20,21,22,23,24,25,26,27,28,29,30,31,32,33,34,35,36,37,38,39,40,41,42,43,44,45,46,47,48,49,50,51,52,53,54,55,56,57,58,59,60,61,62,63,64,65,66,67,68,69,70,71,72,73,74,75,76,77,78,79,80,81,82,83,84,85,86,87,88,89,90,91,92,93,94,95,96,97,98,99,100,101,102,103,104,105,106,107,108,109,110,111,112,113,114,115,116,117,118,119,120,121,122,123,124,125,126,127,128,129,130,131,132,133,134,135,136,137,138,139,140,141,142,143,144,145,146,147,148,149,150,151,152,153,154,155,156,157,158,159,160,161,162,163,164,165,166,167,168,169,170,171,172,173,174,175,176,177,178,179,180,181,182,183,184,185,186,187,188,189,190,191,192,193,194,195,196,197,198,199,200,201,202,203,204,205,206,207,208,209,210,211,212,213,214,215,216,217,218,219,220,221,222,223,224,225,226,227,228,229,230,231,232,233,234,235,236,237,238,239,240,241,242,243,244,245,246,247,248,249,250],"tree_info":[0,0,0,0,0,0,0,0,0,0,0,0,0,0,0,0,0,0,0,0,0,0,0,0,0,0,0,0,0,0,0,0,0,0,0,0,0,0,0,0,0,0,0,0,0,0,0,0,0,0,0,0,0,0,0,0,0,0,0,0,0,0,0,0,0,0,0,0,0,0,0,0,0,0,0,0,0,0,0,0,0,0,0,0,0,0,0,0,0,0,0,0,0,0,0,0,0,0,0,0,0,0,0,0,0,0,0,0,0,0,0,0,0,0,0,0,0,0,0,0,0,0,0,0,0,0,0,0,0,0,0,0,0,0,0,0,0,0,0,0,0,0,0,0,0,0,0,0,0,0,0,0,0,0,0,0,0,0,0,0,0,0,0,0,0,0,0,0,0,0,0,0,0,0,0,0,0,0,0,0,0,0,0,0,0,0,0,0,0,0,0,0,0,0,0,0,0,0,0,0,0,0,0,0,0,0,0,0,0,0,0,0,0,0,0,0,0,0,0,0,0,0,0,0,0,0,0,0,0,0,0,0,0,0,0,0,0,0,0,0,0,0,0,0,0,0,0,0,0,0],"trees":[{"base_weights":[-1.6561203E-1,1.8158676E1,-1.0696349E1,2.548554E1,1.0275418E1,-5.175639E0,-1.967366E1,2.8220516E1,1.618052E1,1.297493E1,-8.0888516E-1,-2.4471118E0,-1.719165E1,-8.123318E0,-2.4865906E1,1.1282063E1,2.8998499E1,1.8198362E1,6.1866255E0,8.198827E0,1.55168915E1,7.1451344E0,-5.813021E0,-8.758117E0,2.4355438E0,-1.1092628E1,-2.0871864E1,-1.5351155E1,-1.943809E0,-3.0655352E1,-1.7037685E1,-1.4156206E-3,6.9469994E-1,1.1936301E0,1.5115559E0,6.761851E-1,1.0342584E0,-1.287208E-1,4.9798647E-1,6.742837E-1,2.3385063E-1,7.9682904E-1,2.3449586E-1,4.8560247E-2,4.9630877E-1,-4.1853857E-1,3.4251902E-1,-1.5767853E-1,-6.755269E-1,3.9872885E-1,-9.1183744E-2,-6.366841E-1,-0E0,-1.334026E0,-7.585982E-1,-6.0618824E-1,-1.3143373E0,5.0235577E-2,-6.57297E-1,-1.3730873E0,-2.1022742E0,-6.7330897E-1,-1.4259498E0],"categories":[],"categories_nodes":[],"categories_segments":[],"categories_sizes":[],"default_left":[0,0,0,0,0,0,0,0,0,0,0,0,0,0,0,0,0,0,0,0,0,0,0,0,0,0,0,0,0,0,0,0,0,0,0,0,0,0,0,0,0,0,0,0,0,0,0,0,0,0,0,0,0,0,0,0,0,0,0,0,0,0,0],"id":0,"left_children":[1,3,5,7,9,11,13,15,17,19,21,23,25,27,29,31,33,35,37,39,41,43,45,47,49,51,53,55,57,59,61,-1,-1,-1,-1,-1,-1,-1,-1,-1,-1,-1,-1,-1,-1,-1,-1,-1,-1,-1,-1,-1,-1,-1,-1,-1,-1,-1,-1,-1,-1,-1,-1],"loss_changes":[5.6936544E5,6.168125E4,9.2654516E4,1.3294781E4,1.5646898E4,3.802429E4,4.2345062E4,5.00025E3,2.4058125E3,4.8391953E3,4.204715E3,2.9313562E4,4.3662383E3,9.921446E3,2.1246188E4,6.6136206E2,1.2125938E3,7.0858594E2,8.7481195E2,2.6538438E3,1.0757656E3,6.7010425E2,2.2039019E3,1.0951578E4,1.2697719E4,1.5320898E3,3.584875E3,3.0084219E3,4.0943926E3,8.016125E3,7.984324E3,0E0,0E0,0E0,0E0,0E0,0E0,0E0,0E0,0E0,0E0,0E0,0E0,0E0,0E0,0E0,0E0,0E0,0E0,0E0,0E0,0E0,0E0,0E0,0E0,0E0,0E0,0E0,0E0,0E0,0E0,0E0,0E0],"parents":[2147483647,0,0,1,1,2,2,3,3,4,4,5,5,6,6,7,7,8,8,9,9,10,10,11,11,12,12,13,13,14,14,15,15,16,16,17,17,18,18,19,19,20,20,21,21,22,22,23,23,24,24,25,25,26,26,27,27,28,28,29,29,30,30],"right_children":[2,4,6,8,10,12,14,16,18,20,22,24,26,28,30,32,34,36,38,40,42,44,46,48,50,52,54,56,58,60,62,-1,-1,-1,-1,-1,-1,-1,-1,-1,-1,-1,-1,-1,-1,-1,-1,-1,-1,-1,-1,-1,-1,-1,-1,-1,-1,-1,-1,-1,-1,-1,-1],"split_conditions":[-5.3709656E-1,-7.389229E-1,3.7505543E-1,-5.091856E-1,4.14649E-1,6.195961E-1,1.3437213E-2,1.3283558E-1,1.0294904E0,-5.982439E-1,-2.7690881E-1,-3.6085495E-1,-4.463199E-2,-1.0795488E0,-6.1754763E-1,-7.685364E-1,-7.706179E-3,8.6085594E-1,-4.8625082E-1,-6.6574085E-1,2.0943751E0,-7.706179E-3,1.5815777E0,-3.1653023E-1,-2.7690881E-1,2.5101444E-1,1.0773866E-2,1.0294904E0,4.14649E-1,5.5128044E-1,4.14649E-1,-1.4156206E-3,6.9469994E-1,1.1936301E0,1.5115559E0,6.761851E-1,1.0342584E0,-1.287208E-1,4.9798647E-1,6.742837E-1,2.3385063E-1,7.9682904E-1,2.3449586E-1,4.8560247E-2,4.9630877E-1,-4.1853857E-1,3.4251902E-1,-1.5767853E-1,-6.755269E-1,3.9872885E-1,-9.1183744E-2,-6.366841E-1,-0E0,-1.334026E0,-7.585982E-1,-6.0618824E-1,-1.3143373E0,5.0235577E-2,-6.57297E-1,-1.3730873E0,-2.1022742E0,-6.7330897E-1,-1.4259498E0],"split_indices":[3,3,3,0,20,20,0,2,20,4,0,4,0,5,5,4,5,5,7,3,22,5,5,3,0,5,5,20,20,20,20,0,0,0,0,0,0,0,0,0,0,0,0,0,0,0,0,0,0,0,0,0,0,0,0,0,0,0,0,0,0,0,0],"split_type":[0,0,0,0,0,0,0,0,0,0,0,0,0,0,0,0,0,0,0,0,0,0,0,0,0,0,0,0,0,0,0,0,0,0,0,0,0,0,0,0,0,0,0,0,0,0,0,0,0,0,0,0,0,0,0,0,0,0,0,0,0,0,0],"sum_hessian":[2.947E3,1.075E3,1.872E3,5.55E2,5.2E2,1.161E3,7.11E2,4.26E2,1.29E2,4.18E2,1.02E2,9.48E2,2.13E2,2.22E2,4.89E2,2E1,4.06E2,1.06E2,2.3E1,1.48E2,2.7E2,3.9E1,6.3E1,4.13E2,5.35E2,8.3E1,1.3E2,1.01E2,1.21E2,2.78E2,2.11E2,4E0,1.6E1,8.6E1,3.2E2,4.1E1,6.5E1,7E0,1.6E1,5.7E1,9.1E1,2.59E2,1.1E1,1.3E1,2.6E1,5.3E1,1E1,1.91E2,2.22E2,2.32E2,3.03E2,7.2E1,1.1E1,6.1E1,6.9E1,8.1E1,2E1,9.7E1,2.4E1,2.22E2,5.6E1,1.64E2,4.7E1],"tree_param":{"num_deleted":"0","num_feature":"25","num_nodes":"63","size_leaf_vector":"1"}},{"base_weights":[-1.15842566E-1,-9.548327E0,1.1332951E1,1.5426067E-1,-1.8295692E1,2.6907393E1,3.009585E0,-4.529262E0,9.040356E0,-2.7058329E1,-1.3188504E1,2.7485046E1,1.4522267E1,-1.9582925E0,1.3849018E1,-8.020861E0,7.8767843E0,5.283292E0,1.6410114E1,-2.4112886E1,-3.7733597E1,-1.6392145E1,-2.444909E0,1.4325371E0,2.1978966E1,6.1453714E0,1.0708833E0,4.892054E0,-7.855323E0,1.1047189E1,2.2513166E1,-7.5473887E-1,-2.3055772E-1,2.7110234E-1,1.0625747E0,4.8101917E-1,6.642061E-2,5.0455636E-1,9.870221E-1,-1.0263262E0,-1.5894111E0,-2.0293922E0,-1.1536716E0,-6.5228957E-1,-1.1333269E0,2.15234E-1,-2.8109056E-1,7.245857E-1,1.2757695E0,-0E0,4.832499E-1,4.5658704E-2,5.2272457E-1,-6.732458E-1,-1.4319937E-1,7.922352E-1,3.5005015E-1,5.874623E-1,1.2132993E0],"categories":[],"categories_nodes":[],"categories_segments":[],"categories_sizes":[],"default_left":[0,0,0,0,0,0,0,0,0,0,0,0,0,0,0,0,0,0,0,0,0,0,0,0,0,0,0,0,0,0,0,0,0,0,0,0,0,0,0,0,0,0,0,0,0,0,0,0,0,0,0,0,0,0,0,0,0,0,0],"id":1,"left_children":[1,3,5,7,9,11,13,15,17,19,21,23,25,27,29,31,33,35,37,39,41,43,45,-1,47,49,-1,51,53,55,57,-1,-1,-1,-1,-1,-1,-1,-1,-1,-1,-1,-1,-1,-1,-1,-1,-1,-1,-1,-1,-1,-1,-1,-1,-1,-1,-1,-1],"loss_changes":[3.2198294E5,1.3877573E5,1.7440642E5,3.2408156E4,3.77875E4,2.5850625E3,4.7439414E4,2.2196867E4,7.260617E3,8.1864062E3,1.872536E4,1.667125E3,1.1625078E3,2.4504652E4,6.231496E3,9.470105E3,3.4639653E3,3.0650605E3,1.4954121E3,5.693875E3,9.493828E2,8.260133E3,2.7855278E3,0E0,1.5582422E3,3.0086212E2,0E0,6.183916E3,9.03318E3,3.903711E3,6.850547E2,0E0,0E0,0E0,0E0,0E0,0E0,0E0,0E0,0E0,0E0,0E0,0E0,0E0,0E0,0E0,0E0,0E0,0E0,0E0,0E0,0E0,0E0,0E0,0E0,0E0,0E0,0E0,0E0],"parents":[2147483647,0,0,1,1,2,2,3,3,4,4,5,5,6,6,7,7,8,8,9,9,10,10,11,11,12,12,13,13,14,14,15,15,16,16,17,17,18,18,19,19,20,20,21,21,22,22,24,24,25,25,27,27,28,28,29,29,30,30],"right_children":[2,4,6,8,10,12,14,16,18,20,22,24,26,28,30,32,34,36,38,40,42,44,46,-1,48,50,-1,52,54,56,58,-1,-1,-1,-1,-1,-1,-1,-1,-1,-1,-1,-1,-1,-1,-1,-1,-1,-1,-1,-1,-1,-1,-1,-1,-1,-1,-1,-1],"split_conditions":[1.8599108E-1,-4.463199E-2,-4.511164E-1,-1.001064E-1,-8.9474833E-1,-5.091856E-1,1.0761614E-1,4.438851E-1,1.9836338E-1,4.8296472E-1,9.14833E-2,5.5128044E-1,9.14833E-2,6.5219843E-1,1.7948426E0,-1.2643492E0,2.0369473E0,-9.7373927E-1,-6.644969E-1,1.2909597E0,-7.9738563E-1,1.1748213E0,4.1992164E-1,1.4325371E0,-6.4351964E-1,5.315018E-1,1.0708833E0,9.1629606E-1,4.7277498E-1,5.3606004E-1,5.846573E-1,-7.5473887E-1,-2.3055772E-1,2.7110234E-1,1.0625747E0,4.8101917E-1,6.642061E-2,5.0455636E-1,9.870221E-1,-1.0263262E0,-1.5894111E0,-2.0293922E0,-1.1536716E0,-6.5228957E-1,-1.1333269E0,2.15234E-1,-2.8109056E-1,7.245857E-1,1.2757695E0,-0E0,4.832499E-1,4.5658704E-2,5.2272457E-1,-6.732458E-1,-1.4319937E-1,7.922352E-1,3.5005015E-1,5.874623E-1,1.2132993E0],"split_indices":[2,0,0,5,5,0,10,10,10,20,10,20,10,0,10,5,10,0,2,0,2,0,0,0,4,2,0,5,5,0,2,0,0,0,0,0,0,0,0,0,0,0,0,0,0,0,0,0,0,0,0,0,0,0,0,0,0,0,0],"split_type":[0,0,0,0,0,0,0,0,0,0,0,0,0,0,0,0,0,0,0,0,0,0,0,0,0,0,0,0,0,0,0,0,0,0,0,0,0,0,0,0,0,0,0,0,0,0,0,0,0,0,0,0,0,0,0,0,0,0,0],"sum_hessian":[2.978E3,1.633E3,1.345E3,7.75E2,8.58E2,4.67E2,8.78E2,5.08E2,2.67E2,3.13E2,5.45E2,4.44E2,2.3E1,6.03E2,2.75E2,3.97E2,1.11E2,1.79E2,8.8E1,2.5E2,6.3E1,4.19E2,1.26E2,3.6E2,8.4E1,1.2E1,1.1E1,2.79E2,3.24E2,2.11E2,6.4E1,1.27E2,2.7E2,9.6E1,1.5E1,8.4E1,9.5E1,3.3E1,5.5E1,1.75E2,7.5E1,5E1,1.3E1,2.77E2,1.42E2,4E1,8.6E1,3E1,5.4E1,5E0,7E0,1.64E2,1.15E2,1.51E2,1.73E2,9.4E1,1.17E2,1.1E1,5.3E1],"tree_param":{"num_deleted":"0","num_feature":"25","num_nodes":"59","size_leaf_vector":"1"}},{"base_weights":[-1.3507019E-1,1.6594023E1,-9.756904E0,2.2449347E1,9.131966E0,-2.9683452E0,-1.6159887E1,2.5304913E1,1.4516574E1,1.5602678E0,1.1800855E1,-9.3617735E0,7.5009394E-1,-7.7432127E0,-2.0417389E1,1.1746225E1,2.6257463E1,7.3837934E0,1.7990805E1,4.135162E0,-1.3837692E1,1.3490471E1,3.268511E0,-1.8903584E1,-6.593587E0,-7.0840845E0,3.3883367E0,-1.4770789E1,-1.8950282E0,-2.5378632E1,-1.3371087E1,7.517001E-1,2.200584E-1,1.0967082E0,1.3825879E0,1.5138082E-2,5.026246E-1,5.5382985E-1,1.0148177E0,-7.839637E-2,4.5808157E-1,-3.6187303E-1,-7.910016E-1,2.7834317E-1,7.655958E-1,3.560887E-1,-7.750651E-2,-1.1641395E-1,-9.8759586E-1,-1.4142805E-1,-5.935862E-1,-1.2765013E-1,-5.628257E-1,4.033301E-1,1.3041957E-2,-1.0324839E0,-4.2238766E-1,-5.2620745E-1,2.7582562E-2,-1.7020149E0,-1.1135013E0,-8.871377E-1,-4.9628067E-1],"categories":[],"categories_nodes":[],"categories_segments":[],"categories_sizes":[],"default_left":[0,0,0,0,0,0,0,0,0,0,0,0,0,0,0,0,0,0,0,0,0,0,0,0,0,0,0,0,0,0,0,0,0,0,0,0,0,0,0,0,0,0,0,0,0,0,0,0,0,0,0,0,0,0,0,0,0,0,0,0,0,0,0],"id":2,"left_children":[1,3,5,7,9,11,13,15,17,19,21,23,25,27,29,31,33,35,37,39,41,43,45,47,49,51,53,55,57,59,61,-1,-1,-1,-1,-1,-1,-1,-1,-1,-1,-1,-1,-1,-1,-1,-1,-1,-1,-1,-1,-1,-1,-1,-1,-1,-1,-1,-1,-1,-1,-1,-1],"loss_changes":[4.8394944E5,4.755903E4,8.286061E4,1.3195125E4,9.767883E3,2.2103871E4,3.4863484E4,5.195625E3,3.8638984E3,5.198032E3,5.073117E3,8.7731875E3,1.2208363E4,1.3607219E4,2.2093625E4,6.4966064E2,1.36725E3,1.0743499E3,1.323957E3,3.2398735E3,1.2213867E1,4.133918E3,1.1740283E3,9.565762E2,5.2437217E3,2.744856E3,6.4503125E3,5.2566875E3,3.90293E3,8.79425E3,3.7588398E3,0E0,0E0,0E0,0E0,0E0,0E0,0E0,0E0,0E0,0E0,0E0,0E0,0E0,0E0,0E0,0E0,0E0,0E0,0E0,0E0,0E0,0E0,0E0,0E0,0E0,0E0,0E0,0E0,0E0,0E0,0E0,0E0],"parents":[2147483647,0,0,1,1,2,2,3,3,4,4,5,5,6,6,7,7,8,8,9,9,10,10,11,11,12,12,13,13,14,14,15,15,16,16,17,17,18,18,19,19,20,20,21,21,22,22,23,23,24,24,25,25,26,26,27,27,28,28,29,29,30,30],"right_children":[2,4,6,8,10,12,14,16,18,20,22,24,26,28,30,32,34,36,38,40,42,44,46,48,50,52,54,56,58,60,62,-1,-1,-1,-1,-1,-1,-1,-1,-1,-1,-1,-1,-1,-1,-1,-1,-1,-1,-1,-1,-1,-1,-1,-1,-1,-1,-1,-1,-1,-1,-1,-1],"split_conditions":[-5.3709656E-1,-7.2385603E-1,4.048362E-2,-5.091856E-1,-2.093985E-1,-5.154041E-1,1.3437213E-2,1.3283558E-1,8.6085594E-1,3.1415863E0,3.1415863E0,-2.093985E-1,-2.093985E-1,-2.666019E-1,-4.3274722E-1,3.606328E0,1.0773866E-2,-2.093985E-1,-2.093985E-1,1.941599E-1,1.036479E0,-8.157456E-1,-6.276597E-1,-1.3802236E0,-3.1653023E-1,-3.2358825E-1,-2.7690881E-1,5.310226E-1,-2.093985E-1,-2.093985E-1,5.310226E-1,7.517001E-1,2.200584E-1,1.0967082E0,1.3825879E0,1.5138082E-2,5.026246E-1,5.5382985E-1,1.0148177E0,-7.839637E-2,4.5808157E-1,-3.6187303E-1,-7.910016E-1,2.7834317E-1,7.655958E-1,3.560887E-1,-7.750651E-2,-1.1641395E-1,-9.8759586E-1,-1.4142805E-1,-5.935862E-1,-1.2765013E-1,-5.628257E-1,4.033301E-1,1.3041957E-2,-1.0324839E0,-4.2238766E-1,-5.2620745E-1,2.7582562E-2,-1.7020149E0,-1.1135013E0,-8.871377E-1,-4.9628067E-1],"split_indices":[3,3,3,0,9,4,0,2,5,16,16,9,9,1,5,11,5,9,9,1,2,4,3,0,3,3,0,9,9,9,9,0,0,0,0,0,0,0,0,0,0,0,0,0,0,0,0,0,0,0,0,0,0,0,0,0,0,0,0,0,0,0,0],"split_type":[0,0,0,0,0,0,0,0,0,0,0,0,0,0,0,0,0,0,0,0,0,0,0,0,0,0,0,0,0,0,0,0,0,0,0,0,0,0,0,0,0,0,0,0,0,0,0,0,0,0,0,0,0,0,0,0,0,0,0,0,0,0,0],"sum_hessian":[3.003E3,1.096E3,1.907E3,6.12E2,4.84E2,9.27E2,9.8E2,4.47E2,1.65E2,1.27E2,3.57E2,3.4E2,5.87E2,3.31E2,6.49E2,3.1E1,4.16E2,5.6E1,1.09E2,1.1E2,1.7E1,2.97E2,6E1,7.4E1,2.66E2,1.47E2,4.4E2,1.49E2,1.82E2,3.78E2,2.71E2,2E1,1.1E1,1.09E2,3.07E2,1.6E1,4E1,3E1,7.9E1,5.2E1,5.8E1,6E0,1.1E1,5.7E1,2.4E2,3.3E1,2.7E1,4E0,7E1,1.57E2,1.09E2,7.2E1,7.5E1,1.75E2,2.65E2,7.5E1,7.4E1,3.9E1,1.43E2,9.5E1,2.83E2,1.16E2,1.55E2],"tree_param":{"num_deleted":"0","num_feature":"25","num_nodes":"63","size_leaf_vector":"1"}},{"base_weights":[1.2866646E-1,1.5830581E1,-8.916336E0,2.1916454E1,9.26813E0,-1.2939297E1,2.635028E0,2.4136732E1,1.5304738E1,4.5619626E0,1.6570808E1,-5.9998226E0,-1.8345196E1,-3.213423E-1,1.3710176E1,1.1907643E1,2.484482E1,1.09536915E1,1.0465056E0,1.8451606E0,1.090494E1,1.4419395E1,1.2382005E0,-1.0742511E1,-1.1269668E0,-1.2444538E1,-2.3305689E1,2.2953837E0,-7.8794527E0,1.0070705E1,1.1110677E0,2.0706855E-1,8.007639E-1,1.0304298E0,1.3010882E0,2.3422909E-1,7.1028155E-1,4.1649428E-1,-6.4162575E-2,4.254923E-1,7.4756694E-1,3.9459395E-1,8.061026E-1,-7.7905095E-1,-4.067714E-1,1.453188E-1,-2.323774E-1,-8.856478E-1,-3.3612737E-1,-1.3821944E0,-8.6438143E-1,-6.200124E-2,3.1340763E-1,-1.3035719E-1,-7.6531917E-1,5.719958E-1,2.1540253E-1],"categories":[],"categories_nodes":[],"categories_segments":[],"categories_sizes":[],"default_left":[0,0,0,0,0,0,0,0,0,0,0,0,0,0,0,0,0,0,0,0,0,0,0,0,0,0,0,0,0,0,0,0,0,0,0,0,0,0,0,0,0,0,0,0,0,0,0,0,0,0,0,0,0,0,0,0,0],"id":3,"left_children":[1,3,5,7,9,11,13,15,17,19,21,23,25,27,29,31,33,35,-1,37,39,41,-1,43,45,47,49,51,53,55,-1,-1,-1,-1,-1,-1,-1,-1,-1,-1,-1,-1,-1,-1,-1,-1,-1,-1,-1,-1,-1,-1,-1,-1,-1,-1,-1],"loss_changes":[4.29288E5,4.372075E4,8.91952E4,7.6816562E3,1.8218375E4,5.314775E4,1.6290341E4,3.1018281E3,3.1911367E3,5.597331E3,2.9907422E3,1.4426479E4,2.2816062E4,7.827637E3,2.8047422E3,7.1137354E2,9.720781E2,1.6475049E3,0E0,4.7301978E3,6.906553E2,1.6293398E3,0E0,3.7396133E3,4.4396724E3,1.0874125E4,1.0359094E4,4.146552E3,3.8928623E3,4.983662E2,0E0,0E0,0E0,0E0,0E0,0E0,0E0,0E0,0E0,0E0,0E0,0E0,0E0,0E0,0E0,0E0,0E0,0E0,0E0,0E0,0E0,0E0,0E0,0E0,0E0,0E0,0E0],"parents":[2147483647,0,0,1,1,2,2,3,3,4,4,5,5,6,6,7,7,8,8,9,9,10,10,11,11,12,12,13,13,14,14,15,15,16,16,17,17,19,19,20,20,21,21,23,23,24,24,25,25,26,26,27,27,28,28,29,29],"right_children":[2,4,6,8,10,12,14,16,18,20,22,24,26,28,30,32,34,36,-1,38,40,42,-1,44,46,48,50,52,54,56,-1,-1,-1,-1,-1,-1,-1,-1,-1,-1,-1,-1,-1,-1,-1,-1,-1,-1,-1,-1,-1,-1,-1,-1,-1,-1,-1],"split_conditions":[-5.3709656E-1,-7.4084634E-1,9.14833E-2,-5.6725484E-1,9.003066E-2,-2.5156757E-2,1.4384075E0,1.3283558E-1,3.600279E-1,7.573132E-1,2.1272464E0,-3.2241258E-1,4.7799084E-1,7.3009956E-1,2.2179935E0,-4.9333224E-1,-9.577446E-1,6.4950144E-1,1.0465056E0,-4.511164E-1,2.5922187E-2,-7.7855945E-1,1.2382005E0,-9.238775E-1,-2.7690881E-1,-8.9474833E-1,-5.8058757E-1,1.941599E-1,8.2640606E-1,2.4544771E-1,1.1110677E0,2.0706855E-1,8.007639E-1,1.0304298E0,1.3010882E0,2.3422909E-1,7.1028155E-1,4.1649428E-1,-6.4162575E-2,4.254923E-1,7.4756694E-1,3.9459395E-1,8.061026E-1,-7.7905095E-1,-4.067714E-1,1.453188E-1,-2.323774E-1,-8.856478E-1,-3.3612737E-1,-1.3821944E0,-8.6438143E-1,-6.200124E-2,3.1340763E-1,-1.3035719E-1,-7.6531917E-1,5.719958E-1,2.1540253E-1],"split_indices":[3,3,10,0,10,3,10,2,10,1,10,4,0,3,10,10,1,8,0,0,4,1,0,10,0,5,5,1,0,3,0,0,0,0,0,0,0,0,0,0,0,0,0,0,0,0,0,0,0,0,0,0,0,0,0,0,0],"split_type":[0,0,0,0,0,0,0,0,0,0,0,0,0,0,0,0,0,0,0,0,0,0,0,0,0,0,0,0,0,0,0,0,0,0,0,0,0,0,0,0,0,0,0,0,0,0,0,0,0,0,0,0,0,0,0,0,0],"sum_hessian":[3.019E3,1.103E3,1.916E3,5.7E2,5.33E2,1.421E3,4.95E2,4.23E2,1.47E2,3.26E2,2.07E2,6.24E2,7.97E2,3.92E2,1.03E2,2.5E1,3.98E2,8.6E1,6.1E1,2.3E2,9.6E1,1.68E2,3.9E1,3.15E2,3.09E2,3.67E2,4.3E2,2.92E2,1E2,7.5E1,2.8E1,1E1,1.5E1,9.4E1,3.04E2,3.1E1,5.5E1,7.4E1,1.56E2,6.4E1,3.2E1,3.7E1,1.31E2,1.07E2,2.08E2,1.44E2,1.65E2,1.89E2,1.78E2,2.46E2,1.84E2,1.55E2,1.37E2,6E1,4E1,5.9E1,1.6E1],"tree_param":{"num_deleted":"0","num_feature":"25","num_nodes":"57","size_leaf_vector":"1"}},{"base_weights":[7.1086E-2,-8.478164E0,9.574415E0,-1.3750157E-1,-1.5979886E1,2.1896042E1,1.7666941E0,-6.1905413E0,5.818681E0,-2.3328463E1,-1.1278986E1,2.3259043E1,1.4756144E1,-3.3566766E0,8.304493E0,-3.2453034E0,-1.6318588E1,7.841173E0,-3.4936287E0,-2.0430283E1,-3.408371E1,-8.965406E0,-2.1443754E1,1.7875547E1,2.4286198E1,1.057938E1,9.78388E-1,-4.715813E-1,-1.4699276E1,3.2063937E0,1.2556098E1,-6.055841E-1,1.2285131E-3,-4.1637245E-1,-9.603357E-1,5.8299536E-1,1.3598423E-1,-4.7120744E-1,4.2804252E-2,-7.802882E-1,-1.2297051E0,-1.8690068E0,-1.175051E0,-2.9026705E-1,-7.4152094E-1,-1.1317858E0,-4.1446066E-1,9.71583E-1,5.124062E-1,1.0172228E0,1.2643714E0,5.9340495E-1,1.1797434E-1,2.3396944E-1,-3.884159E-1,-1.0704244E0,-5.647578E-1,2.4271546E-1,-2.8477222E-1,8.225114E-1,3.6152703E-1],"categories":[],"categories_nodes":[],"categories_segments":[],"categories_sizes":[],"default_left":[0,0,0,0,0,0,0,0,0,0,0,0,0,0,0,0,0,0,0,0,0,0,0,0,0,0,0,0,0,0,0,0,0,0,0,0,0,0,0,0,0,0,0,0,0,0,0,0,0,0,0,0,0,0,0,0,0,0,0,0,0],"id":4,"left_children":[1,3,5,7,9,11,13,15,17,19,21,23,25,27,29,31,33,35,37,39,41,43,45,47,49,51,-1,53,55,57,59,-1,-1,-1,-1,-1,-1,-1,-1,-1,-1,-1,-1,-1,-1,-1,-1,-1,-1,-1,-1,-1,-1,-1,-1,-1,-1,-1,-1,-1,-1],"loss_changes":[2.4768877E5,1.0038799E5,1.3880108E5,2.7530467E4,2.8668375E4,4.784375E3,2.9726488E4,1.1180615E4,7.301879E3,8.898906E3,1.1818078E4,1.7492344E3,1.4963926E3,1.6259564E4,8.35757E3,8.590855E3,1.6361934E3,6.1215117E3,1.8253694E3,4.540117E3,6.7602344E2,7.711965E3,1.1115859E3,5.768301E2,5.457656E2,5.130259E2,0E0,1.5058145E4,1.8276602E3,2.6863271E3,4.149879E3,0E0,0E0,0E0,0E0,0E0,0E0,0E0,0E0,0E0,0E0,0E0,0E0,0E0,0E0,0E0,0E0,0E0,0E0,0E0,0E0,0E0,0E0,0E0,0E0,0E0,0E0,0E0,0E0,0E0,0E0],"parents":[2147483647,0,0,1,1,2,2,3,3,4,4,5,5,6,6,7,7,8,8,9,9,10,10,11,11,12,12,13,13,14,14,15,15,16,16,17,17,18,18,19,19,20,20,21,21,22,22,23,23,24,24,25,25,27,27,28,28,29,29,30,30],"right_children":[2,4,6,8,10,12,14,16,18,20,22,24,26,28,30,32,34,36,38,40,42,44,46,48,50,52,-1,54,56,58,60,-1,-1,-1,-1,-1,-1,-1,-1,-1,-1,-1,-1,-1,-1,-1,-1,-1,-1,-1,-1,-1,-1,-1,-1,-1,-1,-1,-1,-1,-1],"split_conditions":[1.0625784E-1,-4.463199E-2,-3.34978E-1,-5.2514744E-1,-8.5778826E-1,-5.6725484E-1,8.423759E-1,5.5128044E-1,6.195961E-1,6.195961E-1,4.14649E-1,-1.9250663E-1,7.679234E-1,6.195961E-1,5.310226E-1,-2.093985E-1,-1.1479468E0,-7.414624E-1,-4.4666268E-2,8.844753E-1,6.076523E-1,1.116752E0,6.2061536E-1,3.606328E0,-2.093985E-1,1.6443318E0,9.78388E-1,8.844753E-1,-2.093985E-1,4.14649E-1,8.2640606E-1,-6.055841E-1,1.2285131E-3,-4.1637245E-1,-9.603357E-1,5.8299536E-1,1.3598423E-1,-4.7120744E-1,4.2804252E-2,-7.802882E-1,-1.2297051E0,-1.8690068E0,-1.175051E0,-2.9026705E-1,-7.4152094E-1,-1.1317858E0,-4.1446066E-1,9.71583E-1,5.124062E-1,1.0172228E0,1.2643714E0,5.9340495E-1,1.1797434E-1,2.3396944E-1,-3.884159E-1,-1.0704244E0,-5.647578E-1,2.4271546E-1,-2.8477222E-1,8.225114E-1,3.6152703E-1],"split_indices":[2,6,6,5,5,6,5,20,20,20,20,5,8,20,9,9,6,6,5,6,7,6,5,11,9,20,0,6,9,20,6,0,0,0,0,0,0,0,0,0,0,0,0,0,0,0,0,0,0,0,0,0,0,0,0,0,0,0,0,0,0],"split_type":[0,0,0,0,0,0,0,0,0,0,0,0,0,0,0,0,0,0,0,0,0,0,0,0,0,0,0,0,0,0,0,0,0,0,0,0,0,0,0,0,0,0,0,0,0,0,0,0,0,0,0,0,0,0,0,0,0,0,0,0,0],"sum_hessian":[3.045E3,1.603E3,1.442E3,7.6E2,8.43E2,5.58E2,8.84E2,3.77E2,3.83E2,3.26E2,5.17E2,4.65E2,9.3E1,4.96E2,3.88E2,2.94E2,8.3E1,3.15E2,6.8E1,2.61E2,6.5E1,4.24E2,9.3E1,8E1,3.85E2,5.3E1,4E1,3.97E2,9.9E1,1.78E2,2.1E2,7.8E1,2.16E2,2.4E1,5.9E1,1.79E2,1.36E2,2.8E1,4E1,1.25E2,1.36E2,4.6E1,1.9E1,2.78E2,1.46E2,8.4E1,9E0,6.4E1,1.6E1,8.6E1,2.99E2,4.5E1,8E0,2.33E2,1.64E2,3E1,6.9E1,1.51E2,2.7E1,1.19E2,9.1E1],"tree_param":{"num_deleted":"0","num_feature":"25","num_nodes":"61","size_leaf_vector":"1"}},{"base_weights":[-1.6180941E-1,9.928003E0,-7.62767E0,1.1462536E0,2.0051792E1,-1.6985619E1,-9.2499304E-1,-3.2396107E0,9.4884205E0,2.2154657E1,1.2537619E1,-1.9272299E1,-5.9059258E0,-4.0445223E0,1.0765088E1,-7.1761312E0,5.136486E0,6.7525325E0,1.0724771E0,1.754982E1,2.3452614E1,7.5679164E0,1.8007305E1,-2.3170013E1,-1.4665028E1,-1.1464093E1,-1.7690437E0,-6.8779383E0,4.9093375E0,4.000595E0,1.4362832E1,-7.829443E-1,-2.3542969E-1,1.976504E-2,4.2063233E-1,1.2509869E-1,5.080831E-1,9.4757843E-1,4.9945018E-1,9.987568E-1,1.2139577E0,1.7874505E-1,7.7340204E-1,2.9932672E-1,9.542621E-1,-1.5236449E0,-9.989316E-1,-5.9461653E-1,-1.0321777E0,-1.7733214E-2,-7.523305E-1,-0E0,-6.0976547E-1,-2.3811209E-1,-7.734849E-1,-1.1510561E-1,3.7891743E-1,4.2172238E-1,-1.8061519E-2,5.8515614E-1,1.1058615E0],"categories":[],"categories_nodes":[],"categories_segments":[],"categories_sizes":[],"default_left":[0,0,0,0,0,0,0,0,0,0,0,0,0,0,0,0,0,0,0,0,0,0,0,0,0,0,0,0,0,0,0,0,0,0,0,0,0,0,0,0,0,0,0,0,0,0,0,0,0,0,0,0,0,0,0,0,0,0,0,0,0],"id":5,"left_children":[1,3,5,7,9,11,13,15,17,19,21,23,25,27,29,31,33,35,-1,37,39,41,43,45,47,49,51,53,55,57,59,-1,-1,-1,-1,-1,-1,-1,-1,-1,-1,-1,-1,-1,-1,-1,-1,-1,-1,-1,-1,-1,-1,-1,-1,-1,-1,-1,-1,-1,-1],"loss_changes":[2.2422264E5,1.124686E5,1.07257234E5,2.4935088E4,8.746406E3,1.7849562E4,3.6494094E4,1.4800986E4,7.3891133E3,1.9401719E3,3.333875E3,9.952469E3,2.8172021E3,2.0100375E4,5.004756E3,6.2227656E3,2.217073E3,2.7473389E3,0E0,7.6702344E2,8.2234375E1,2.1741133E3,5.650371E2,6.2270156E3,4.0908906E3,2.073338E3,1.3752776E3,1.07641875E4,3.710146E3,1.4811204E3,2.3149297E3,0E0,0E0,0E0,0E0,0E0,0E0,0E0,0E0,0E0,0E0,0E0,0E0,0E0,0E0,0E0,0E0,0E0,0E0,0E0,0E0,0E0,0E0,0E0,0E0,0E0,0E0,0E0,0E0,0E0,0E0],"parents":[2147483647,0,0,1,1,2,2,3,3,4,4,5,5,6,6,7,7,8,8,9,9,10,10,11,11,12,12,13,13,14,14,15,15,16,16,17,17,19,19,20,20,21,21,22,22,23,23,24,24,25,25,26,26,27,27,28,28,29,29,30,30],"right_children":[2,4,6,8,10,12,14,16,18,20,22,24,26,28,30,32,34,36,-1,38,40,42,44,46,48,50,52,54,56,58,60,-1,-1,-1,-1,-1,-1,-1,-1,-1,-1,-1,-1,-1,-1,-1,-1,-1,-1,-1,-1,-1,-1,-1,-1,-1,-1,-1,-1,-1,-1],"split_conditions":[-2.188396E-1,1.0625784E-1,-2.4794675E-1,4.3818083E-2,-5.6725484E-1,9.14833E-2,6.117675E-1,-1.001064E-1,1.874364E0,-3.2749298E-1,6.1055374E-1,-7.442301E-1,-8.7626827E-1,1.1195766E0,6.112351E-1,-1.4861097E0,5.310226E-1,-6.729878E-1,1.0724771E0,6.195961E-1,-5.568553E-1,9.14833E-2,4.7834632E-1,-2.093985E-1,1.2328905E0,-9.807653E-1,1.349029E0,1.0294904E0,-2.093985E-1,5.9412926E-1,2.1272464E0,-7.829443E-1,-2.3542969E-1,1.976504E-2,4.2063233E-1,1.2509869E-1,5.080831E-1,9.4757843E-1,4.9945018E-1,9.987568E-1,1.2139577E0,1.7874505E-1,7.7340204E-1,2.9932672E-1,9.542621E-1,-1.5236449E0,-9.989316E-1,-5.9461653E-1,-1.0321777E0,-1.7733214E-2,-7.523305E-1,-0E0,-6.0976547E-1,-2.3811209E-1,-7.734849E-1,-1.1510561E-1,3.7891743E-1,4.2172238E-1,-1.8061519E-2,5.8515614E-1,1.1058615E0],"split_indices":[0,2,5,10,0,10,10,5,10,8,8,2,5,5,2,5,9,5,0,20,10,10,2,9,0,4,0,20,9,0,10,0,0,0,0,0,0,0,0,0,0,0,0,0,0,0,0,0,0,0,0,0,0,0,0,0,0,0,0,0,0],"split_type":[0,0,0,0,0,0,0,0,0,0,0,0,0,0,0,0,0,0,0,0,0,0,0,0,0,0,0,0,0,0,0,0,0,0,0,0,0,0,0,0,0,0,0,0,0,0,0,0,0,0,0,0,0,0,0,0,0,0,0,0,0],"sum_hessian":[2.973E3,1.264E3,1.709E3,6.78E2,5.86E2,7.12E2,9.97E2,4.45E2,2.33E2,4.55E2,1.31E2,5.89E2,1.23E2,7.88E2,2.09E2,3.03E2,1.42E2,1.92E2,4.1E1,1.06E2,3.49E2,7.1E1,6E1,3.15E2,2.74E2,5.1E1,7.2E1,5.99E2,1.89E2,7.4E1,1.35E2,6.6E1,2.37E2,5.9E1,8.3E1,8.7E1,1.05E2,8.7E1,1.9E1,7.6E1,2.73E2,4.9E1,2.2E1,6E0,5.4E1,9.1E1,2.24E2,1.91E2,8.3E1,1.3E1,3.8E1,6.3E1,9E0,4.83E2,1.16E2,5.1E1,1.38E2,3.6E1,3.8E1,1.04E2,3.1E1],"tree_param":{"num_deleted":"0","num_feature":"25","num_nodes":"61","size_leaf_vector":"1"}},{"base_weights":[2.3431128E-1,1.36577835E1,-7.713271E0,1.9137585E1,7.9616475E0,-2.3163671E0,-1.3717267E1,2.1819328E1,1.4938873E1,4.5877314E-1,1.0720233E1,-1.9605035E-1,-1.2452266E1,-7.7995195E0,-1.8465693E1,2.2595394E1,1.5889474E1,1.6271214E1,8.845701E0,3.0385516E0,-1.2105642E1,1.21668415E1,3.9778502E0,5.0627794E0,-2.6806889E0,-1.4794414E1,-5.191492E0,-4.4548955E0,-1.9080027E1,-2.5263681E1,-1.3971383E1,2.7782714E-1,1.1365396E0,2.1157096E-1,8.250317E-1,9.22372E-1,6.0667735E-1,8.970678E-2,5.372366E-1,3.2647246E-1,-1.2504151E-1,-6.8816334E-1,-1.827179E-1,3.8160422E-1,6.6766006E-1,3.525147E-1,-6.1091017E-2,4.888646E-2,4.46074E-1,-2.9431912E-1,8.887604E-2,-1.0473713E0,-5.945318E-1,-9.523507E-3,-4.5811817E-1,-4.9240476E-1,2.4302503E-2,-1.1634778E0,-6.3144946E-1,-1.7045544E0,-1.065752E0,-9.244329E-1,-5.189394E-1],"categories":[],"categories_nodes":[],"categories_segments":[],"categories_sizes":[],"default_left":[0,0,0,0,0,0,0,0,0,0,0,0,0,0,0,0,0,0,0,0,0,0,0,0,0,0,0,0,0,0,0,0,0,0,0,0,0,0,0,0,0,0,0,0,0,0,0,0,0,0,0,0,0,0,0,0,0,0,0,0,0,0,0],"id":6,"left_children":[1,3,5,7,9,11,13,15,17,19,21,23,25,27,29,31,33,35,37,39,41,43,45,47,49,51,53,55,57,59,61,-1,-1,-1,-1,-1,-1,-1,-1,-1,-1,-1,-1,-1,-1,-1,-1,-1,-1,-1,-1,-1,-1,-1,-1,-1,-1,-1,-1,-1,-1,-1,-1],"loss_changes":[3.1980112E5,3.449025E4,6.093193E4,5.7512656E3,1.1357117E4,2.1338498E4,2.4740688E4,8.805156E2,1.5519883E3,4.910859E3,3.812504E3,1.0785581E4,2.7593652E3,1.4902836E4,1.4373734E4,4.2573438E2,1.7576562E2,1.2154258E3,5.501763E2,2.466873E3,2.5E2,1.5656445E3,1.2015062E3,4.1464585E3,8.038524E3,1.8135215E3,8.752921E2,8.301895E3,1.8819922E3,5.3806797E3,4.5015586E3,0E0,0E0,0E0,0E0,0E0,0E0,0E0,0E0,0E0,0E0,0E0,0E0,0E0,0E0,0E0,0E0,0E0,0E0,0E0,0E0,0E0,0E0,0E0,0E0,0E0,0E0,0E0,0E0,0E0,0E0,0E0,0E0],"parents":[2147483647,0,0,1,1,2,2,3,3,4,4,5,5,6,6,7,7,8,8,9,9,10,10,11,11,12,12,13,13,14,14,15,15,16,16,17,17,18,18,19,19,20,20,21,21,22,22,23,23,24,24,25,25,26,26,27,27,28,28,29,29,30,30],"right_children":[2,4,6,8,10,12,14,16,18,20,22,24,26,28,30,32,34,36,38,40,42,44,46,48,50,52,54,56,58,60,62,-1,-1,-1,-1,-1,-1,-1,-1,-1,-1,-1,-1,-1,-1,-1,-1,-1,-1,-1,-1,-1,-1,-1,-1,-1,-1,-1,-1,-1,-1,-1,-1],"split_conditions":[-5.4162353E-1,-7.4084634E-1,1.2261317E-1,-8.393689E-1,-2.093985E-1,1.0978061E0,3.6185244E-1,-6.25324E-1,6.8791187E-1,1.1661218E0,4.14649E-1,-2.7690881E-1,3.8896058E0,4.14649E-1,-9.132284E-1,2.6572433E-1,-6.3146316E-2,-3.930472E-1,-4.8625082E-1,-6.319172E-1,3.8896058E0,-8.1626356E-2,-6.276597E-1,-5.7042897E-1,3.9885482E-1,-2.093985E-1,-3.3004326E-1,-8.9474833E-1,-9.317084E-1,-2.093985E-1,5.310226E-1,2.7782714E-1,1.1365396E0,2.1157096E-1,8.250317E-1,9.22372E-1,6.0667735E-1,8.970678E-2,5.372366E-1,3.2647246E-1,-1.2504151E-1,-6.8816334E-1,-1.827179E-1,3.8160422E-1,6.6766006E-1,3.525147E-1,-6.1091017E-2,4.888646E-2,4.46074E-1,-2.9431912E-1,8.887604E-2,-1.0473713E0,-5.945318E-1,-9.523507E-3,-4.5811817E-1,-4.9240476E-1,2.4302503E-2,-1.1634778E0,-6.3144946E-1,-1.7045544E0,-1.065752E0,-9.244329E-1,-5.189394E-1],"split_indices":[3,3,3,3,9,20,0,0,20,20,20,0,23,20,5,2,5,0,7,3,23,5,3,8,5,9,3,5,5,9,9,0,0,0,0,0,0,0,0,0,0,0,0,0,0,0,0,0,0,0,0,0,0,0,0,0,0,0,0,0,0,0,0],"split_type":[0,0,0,0,0,0,0,0,0,0,0,0,0,0,0,0,0,0,0,0,0,0,0,0,0,0,0,0,0,0,0,0,0,0,0,0,0,0,0,0,0,0,0,0,0,0,0,0,0,0,0,0,0,0,0,0,0,0,0,0,0,0,0],"sum_hessian":[2.994E3,1.113E3,1.881E3,5.65E2,5.48E2,9.92E2,8.89E2,3.4E2,2.25E2,1.48E2,4E2,8.22E2,1.7E2,3.98E2,4.91E2,2.96E2,4.4E1,1.82E2,4.3E1,1.24E2,2.4E1,3.28E2,7.2E1,2.63E2,5.59E2,1.27E2,4.3E1,3.09E2,8.9E1,1.92E2,2.99E2,3E0,2.93E2,3E0,4.1E1,1.15E2,6.7E1,1E1,3.3E1,7.6E1,4.8E1,1.9E1,5E0,7.1E1,2.57E2,4.5E1,2.7E1,1.29E2,1.34E2,3.25E2,2.34E2,3.7E1,9E1,2E1,2.3E1,1.47E2,1.62E2,5.1E1,3.8E1,5.5E1,1.37E2,1.29E2,1.7E2],"tree_param":{"num_deleted":"0","num_feature":"25","num_nodes":"63","size_leaf_vector":"1"}},{"base_weights":[1.3778588E-1,1.2901188E1,-7.2441673E0,2.0609304E1,9.265992E0,-1.0583095E1,2.5126734E0,2.1325024E1,1.3796906E1,5.66596E0,1.4907441E1,-6.9008207E0,-1.8159174E1,-3.5746205E-1,1.1879172E1,1.8238556E1,1.1088871E0,5.5013194E0,8.1459093E-1,-2.0000556E0,8.570901E0,1.3278043E1,1.1270039E0,-4.75662E0,-1.2973314E1,-9.164182E0,-2.1344337E1,4.9456825E0,-3.7706966E0,9.045339E0,1.0059404E0,1.8876629E-1,9.352749E-1,-1.1154396E-3,4.8725936E-1,1.4331259E-1,-2.9759246E-1,7.0534194E-1,2.5678968E-1,5.2208316E-1,7.9558367E-1,-3.5834846E-1,1.3689241E-2,-5.174964E-1,-8.966684E-1,-8.837541E-1,-2.9997185E-1,-1.4130803E0,-9.1547054E-1,5.6779604E-2,4.1660434E-1,1.796299E-2,-3.723944E-1,2.123669E-1,5.294013E-1],"categories":[],"categories_nodes":[],"categories_segments":[],"categories_sizes":[],"default_left":[0,0,0,0,0,0,0,0,0,0,0,0,0,0,0,0,0,0,0,0,0,0,0,0,0,0,0,0,0,0,0,0,0,0,0,0,0,0,0,0,0,0,0,0,0,0,0,0,0,0,0,0,0,0,0],"id":7,"left_children":[1,3,5,7,9,11,13,15,17,19,21,23,25,27,29,31,-1,33,-1,35,37,39,-1,41,43,45,47,49,51,53,-1,-1,-1,-1,-1,-1,-1,-1,-1,-1,-1,-1,-1,-1,-1,-1,-1,-1,-1,-1,-1,-1,-1,-1,-1],"loss_changes":[2.843202E5,3.0605516E4,6.2338984E4,1.1484375E3,1.51528125E4,3.9492312E4,1.31619375E4,5.4546875E1,6.155547E2,1.0367252E4,3.0597344E3,1.2390906E4,1.29280625E4,6.834467E3,2.3179893E3,3.7808008E2,0E0,2.88669E2,0E0,2.5113164E3,6.2512695E3,1.5054375E3,0E0,8.666652E3,2.8823906E3,3.1421846E3,6.1882188E3,1.8785977E3,3.503213E3,5.5853125E2,0E0,0E0,0E0,0E0,0E0,0E0,0E0,0E0,0E0,0E0,0E0,0E0,0E0,0E0,0E0,0E0,0E0,0E0,0E0,0E0,0E0,0E0,0E0,0E0,0E0],"parents":[2147483647,0,0,1,1,2,2,3,3,4,4,5,5,6,6,7,7,8,8,9,9,10,10,11,11,12,12,13,13,14,14,15,15,17,17,19,19,20,20,21,21,23,23,24,24,25,25,26,26,27,27,28,28,29,29],"right_children":[2,4,6,8,10,12,14,16,18,20,22,24,26,28,30,32,-1,34,-1,36,38,40,-1,42,44,46,48,50,52,54,-1,-1,-1,-1,-1,-1,-1,-1,-1,-1,-1,-1,-1,-1,-1,-1,-1,-1,-1,-1,-1,-1,-1,-1,-1],"split_conditions":[-5.3709656E-1,-8.3217156E-1,9.14833E-2,-5.091856E-1,9.003066E-2,6.075819E-1,1.4384075E0,-4.964936E-1,-9.238775E-1,-2.093985E-1,2.1272464E0,6.195961E-1,1.3437213E-2,-7.815403E-2,2.2179935E0,-5.436275E-1,1.1088871E0,-2.093985E-1,8.1459093E-1,-7.0276237E-1,-5.091856E-1,1.4296414E-1,1.1270039E0,5.7812804E-1,-2.5156757E-2,-9.321467E-1,-2.093985E-1,-1.1301463E-1,4.1992164E-1,-3.500582E-1,1.0059404E0,1.8876629E-1,9.352749E-1,-1.1154396E-3,4.8725936E-1,1.4331259E-1,-2.9759246E-1,7.0534194E-1,2.5678968E-1,5.2208316E-1,7.9558367E-1,-3.5834846E-1,1.3689241E-2,-5.174964E-1,-8.966684E-1,-8.837541E-1,-2.9997185E-1,-1.4130803E0,-9.1547054E-1,5.6779604E-2,4.1660434E-1,1.796299E-2,-3.723944E-1,2.123669E-1,5.294013E-1],"split_indices":[3,3,10,0,10,3,10,10,10,9,10,20,0,3,10,5,0,9,0,3,0,1,0,1,3,1,9,1,0,4,0,0,0,0,0,0,0,0,0,0,0,0,0,0,0,0,0,0,0,0,0,0,0,0,0],"split_type":[0,0,0,0,0,0,0,0,0,0,0,0,0,0,0,0,0,0,0,0,0,0,0,0,0,0,0,0,0,0,0,0,0,0,0,0,0,0,0,0,0,0,0,0,0,0,0,0,0,0,0,0,0,0,0],"sum_hessian":[3.014E3,1.104E3,1.91E3,3.51E2,7.53E2,1.423E3,4.87E2,3.14E2,3.7E1,4.62E2,2.91E2,9.6E2,4.63E2,3.74E2,1.13E2,7.7E1,2.37E2,1E1,2.7E1,1.27E2,3.35E2,2.44E2,4.7E1,7.12E2,2.48E2,1.23E2,3.4E2,1.46E2,2.28E2,8.7E1,2.6E1,3E0,7.4E1,5E0,5E0,5.7E1,7E1,1.26E2,2.09E2,1.22E2,1.22E2,4.81E2,2.31E2,1.66E2,8.2E1,3.1E1,9.2E1,9.9E1,2.41E2,7E1,7.6E1,1.08E2,1.2E2,2.3E1,6.4E1],"tree_param":{"num_deleted":"0","num_feature":"25","num_nodes":"55","size_leaf_vector":"1"}},{"base_weights":[-3.51867E-1,1.2322043E1,-7.495902E0,1.8531939E1,8.121286E0,-1.0638289E1,2.6281984E0,1.9709785E1,1.3445731E1,4.39988E0,1.4362867E1,-5.2197347E0,-1.5113555E1,-2.0785384E-1,1.2288127E1,2.062209E1,1.571215E1,7.4348555E0,1.6162273E1,-3.4958453E0,7.394553E0,1.2794685E1,1.0643226E0,-7.476623E0,1.9000826E0,-1.0445372E1,-1.8998873E1,2.0390584E0,-6.6039886E0,9.140893E0,9.5871556E-1,2.4723995E-1,1.0377998E0,2.9244992E-1,8.638975E-1,4.5206624E-1,-2.2592915E-2,9.0474063E-1,4.660382E-1,-4.606007E-1,-7.8353705E-3,5.95341E-1,2.4641727E-1,3.200559E-1,7.4083984E-1,-6.611272E-1,-2.4954744E-1,-1.13700226E-1,2.6111284E-1,-7.4202114E-1,-2.3250084E-1,-8.393342E-1,-1.2640411E0,-2.1332157E-1,1.6365494E-1,-1.1367937E-1,-6.3824123E-1,2.1230467E-1,5.213774E-1],"categories":[],"categories_nodes":[],"categories_segments":[],"categories_sizes":[],"default_left":[0,0,0,0,0,0,0,0,0,0,0,0,0,0,0,0,0,0,0,0,0,0,0,0,0,0,0,0,0,0,0,0,0,0,0,0,0,0,0,0,0,0,0,0,0,0,0,0,0,0,0,0,0,0,0,0,0,0,0],"id":8,"left_children":[1,3,5,7,9,11,13,15,17,19,21,23,25,27,29,31,33,35,37,39,41,43,-1,45,47,49,51,53,55,57,-1,-1,-1,-1,-1,-1,-1,-1,-1,-1,-1,-1,-1,-1,-1,-1,-1,-1,-1,-1,-1,-1,-1,-1,-1,-1,-1,-1,-1],"loss_changes":[2.7222362E5,2.7969406E4,6.123161E4,2.0939688E3,1.49569375E4,3.5427E4,1.2533613E4,6.4890625E2,1.1890566E3,9.740979E3,2.0941914E3,1.0746826E4,1.4168141E4,5.1287437E3,1.9001328E3,3.696953E2,9.1464844E2,4.0788977E2,4.4094043E2,2.1582686E3,3.1881465E3,2.412793E3,0E0,7.0977188E3,2.2686016E3,9.246055E3,5.241875E3,2.0766318E3,2.4055156E3,3.737793E2,0E0,0E0,0E0,0E0,0E0,0E0,0E0,0E0,0E0,0E0,0E0,0E0,0E0,0E0,0E0,0E0,0E0,0E0,0E0,0E0,0E0,0E0,0E0,0E0,0E0,0E0,0E0,0E0,0E0],"parents":[2147483647,0,0,1,1,2,2,3,3,4,4,5,5,6,6,7,7,8,8,9,9,10,10,11,11,12,12,13,13,14,14,15,15,16,16,17,17,18,18,19,19,20,20,21,21,23,23,24,24,25,25,26,26,27,27,28,28,29,29],"right_children":[2,4,6,8,10,12,14,16,18,20,22,24,26,28,30,32,34,36,38,40,42,44,-1,46,48,50,52,54,56,58,-1,-1,-1,-1,-1,-1,-1,-1,-1,-1,-1,-1,-1,-1,-1,-1,-1,-1,-1,-1,-1,-1,-1,-1,-1,-1,-1,-1,-1],"split_conditions":[-5.3709656E-1,-7.9691625E-1,9.14833E-2,4.8296472E-1,9.003066E-2,1.7161395E-2,1.4384075E0,-6.25324E-1,-6.4351964E-1,-2.093985E-1,2.1272464E0,5.882047E-2,4.7799084E-1,7.3009956E-1,2.2179935E0,-8.393082E-1,-9.268033E-1,-3.930472E-1,-8.491383E-1,-8.976616E-1,-5.091856E-1,-2.093985E-1,1.0643226E0,-2.093985E-1,5.310226E-1,-7.838681E-1,4.8296472E-1,-1.1881255E0,8.2640606E-1,5.310226E-1,9.5871556E-1,2.4723995E-1,1.0377998E0,2.9244992E-1,8.638975E-1,4.5206624E-1,-2.2592915E-2,9.0474063E-1,4.660382E-1,-4.606007E-1,-7.8353705E-3,5.95341E-1,2.4641727E-1,3.200559E-1,7.4083984E-1,-6.611272E-1,-2.4954744E-1,-1.13700226E-1,2.6111284E-1,-7.4202114E-1,-2.3250084E-1,-8.393342E-1,-1.2640411E0,-2.1332157E-1,1.6365494E-1,-1.1367937E-1,-6.3824123E-1,2.1230467E-1,5.213774E-1],"split_indices":[3,3,10,20,10,3,10,6,4,9,10,4,6,3,10,5,4,6,3,10,6,9,0,9,9,5,20,1,6,9,0,0,0,0,0,0,0,0,0,0,0,0,0,0,0,0,0,0,0,0,0,0,0,0,0,0,0,0,0],"split_type":[0,0,0,0,0,0,0,0,0,0,0,0,0,0,0,0,0,0,0,0,0,0,0,0,0,0,0,0,0,0,0,0,0,0,0,0,0,0,0,0,0,0,0,0,0,0,0,0,0,0,0,0,0,0,0,0,0,0,0],"sum_hessian":[3.003E3,1.082E3,1.921E3,4.34E2,6.48E2,1.466E3,4.55E2,3.48E2,8.6E1,4.08E2,2.4E2,6.65E2,8.01E2,3.53E2,1.02E2,2.77E2,7.1E1,2.9E1,5.7E1,1.12E2,2.96E2,2E2,4E1,5.05E2,1.6E2,3.67E2,4.34E2,2.62E2,9.1E1,7.3E1,2.9E1,3E0,2.74E2,1.1E1,6E1,2.4E1,5E0,4.2E1,1.5E1,4E1,7.2E1,1.02E2,1.94E2,5E1,1.5E2,1.5E2,3.55E2,7.1E1,8.9E1,2.07E2,1.6E2,3.26E2,1.08E2,4.2E1,2.2E2,5.5E1,3.6E1,1.7E1,5.6E1],"tree_param":{"num_deleted":"0","num_feature":"25","num_nodes":"59","size_leaf_vector":"1"}},{"base_weights":[-1.5583976E-1,9.964226E0,-8.228839E0,1.6153032E1,4.6639643E0,-1.1342671E1,-2.7011102E-2,1.7995562E1,1.0175715E1,7.732457E-1,1.1153381E1,-8.275207E0,-1.8072884E1,-1.9228809E0,9.791249E0,1.5566191E1,9.9346095E-1,4.452695E0,1.3036626E1,-3.1316488E0,4.4077773E0,9.073351E0,1.6634653E1,-1.11868305E1,-3.0705774E0,-2.2380081E1,-1.3537776E1,2.7958891E0,-4.8263893E0,6.799334E0,8.9146805E-1,9.3188566E-1,6.6943157E-1,9.621813E-2,5.2292E-1,4.7122908E-1,8.04042E-1,-4.2646877E-2,-4.5151863E-1,1.3439007E-1,4.2829156E-1,5.6543916E-1,2.527773E-1,2.5279555E-1,8.586895E-1,-2.3512371E-1,-6.417969E-1,1.891837E-2,-4.215683E-1,-9.360901E-1,-1.5101444E0,-4.9483377E-1,-9.944558E-1,-5.9664797E-2,2.4143966E-1,-1.3885173E-2,-4.5722577E-1,4.2343503E-1,1.10896684E-1],"categories":[],"categories_nodes":[],"categories_segments":[],"categories_sizes":[],"default_left":[0,0,0,0,0,0,0,0,0,0,0,0,0,0,0,0,0,0,0,0,0,0,0,0,0,0,0,0,0,0,0,0,0,0,0,0,0,0,0,0,0,0,0,0,0,0,0,0,0,0,0,0,0,0,0,0,0,0,0],"id":9,"left_children":[1,3,5,7,9,11,13,15,17,19,21,23,25,27,29,31,-1,33,35,37,39,41,43,45,47,49,51,53,55,57,-1,-1,-1,-1,-1,-1,-1,-1,-1,-1,-1,-1,-1,-1,-1,-1,-1,-1,-1,-1,-1,-1,-1,-1,-1,-1,-1,-1,-1],"loss_changes":[2.4171394E5,4.2902273E4,4.201807E4,6.2974688E3,1.7891547E4,2.4324172E4,8.490159E3,1.4936875E3,2.2780889E3,6.353378E3,2.727914E3,1.2389703E4,6.6741406E3,5.271464E3,1.5270776E3,9.089492E2,0E0,7.3546716E2,7.609922E2,2.874949E3,1.6028296E3,1.6450176E3,2.5900195E2,5.503586E3,5.5214487E3,4.2979375E3,3.9067383E3,1.2052281E3,4.654942E3,3.877749E2,0E0,0E0,0E0,0E0,0E0,0E0,0E0,0E0,0E0,0E0,0E0,0E0,0E0,0E0,0E0,0E0,0E0,0E0,0E0,0E0,0E0,0E0,0E0,0E0,0E0,0E0,0E0,0E0,0E0],"parents":[2147483647,0,0,1,1,2,2,3,3,4,4,5,5,6,6,7,7,8,8,9,9,10,10,11,11,12,12,13,13,14,14,15,15,17,17,18,18,19,19,20,20,21,21,22,22,23,23,24,24,25,25,26,26,27,27,28,28,29,29],"right_children":[2,4,6,8,10,12,14,16,18,20,22,24,26,28,30,32,-1,34,36,38,40,42,44,46,48,50,52,54,56,58,-1,-1,-1,-1,-1,-1,-1,-1,-1,-1,-1,-1,-1,-1,-1,-1,-1,-1,-1,-1,-1,-1,-1,-1,-1,-1,-1,-1,-1],"split_conditions":[-4.334286E-1,-7.1998745E-1,1.7877206E-2,-3.930472E-1,1.7877206E-2,8.1994975E-1,1.4384075E0,5.8365524E-1,6.4950144E-1,-5.292364E-1,1.7292548E0,4.501387E-1,-1.0623119E-2,-1.8039306E-3,2.1272464E0,-9.069845E-1,9.9346095E-1,5.385647E-1,-8.0936454E-2,6.8791187E-1,3.8197666E-2,-5.512193E-1,-1.5976915E0,-6.25324E-1,7.1026766E-1,4.14649E-1,1.0586829E0,-5.2061385E-1,4.1992164E-1,2.4544771E-1,8.9146805E-1,9.3188566E-1,6.6943157E-1,9.621813E-2,5.2292E-1,4.7122908E-1,8.04042E-1,-4.2646877E-2,-4.5151863E-1,1.3439007E-1,4.2829156E-1,5.6543916E-1,2.527773E-1,2.5279555E-1,8.586895E-1,-2.3512371E-1,-6.417969E-1,1.891837E-2,-4.215683E-1,-9.360901E-1,-1.5101444E0,-4.9483377E-1,-9.944558E-1,-5.9664797E-2,2.4143966E-1,-1.3885173E-2,-4.5722577E-1,4.2343503E-1,1.10896684E-1],"split_indices":[3,3,10,0,10,3,10,5,8,4,10,1,1,3,10,3,0,10,10,20,4,3,1,0,0,20,0,4,0,3,0,0,0,0,0,0,0,0,0,0,0,0,0,0,0,0,0,0,0,0,0,0,0,0,0,0,0,0,0],"split_type":[0,0,0,0,0,0,0,0,0,0,0,0,0,0,0,0,0,0,0,0,0,0,0,0,0,0,0,0,0,0,0,0,0,0,0,0,0,0,0,0,0,0,0,0,0,0,0,0,0,0,0,0,0,0,0,0,0,0,0],"sum_hessian":[2.955E3,1.311E3,1.644E3,6.03E2,7.08E2,1.191E3,4.53E2,4.58E2,1.45E2,4.44E2,2.64E2,8.21E2,3.7E2,3.81E2,7.2E1,2.07E2,2.51E2,5E1,9.5E1,2.14E2,2.3E2,1.95E2,6.9E1,5.25E2,2.96E2,1.86E2,1.84E2,1.45E2,2.36E2,5.5E1,1.7E1,8E1,1.27E2,3.7E1,1.3E1,4.7E1,4.8E1,1.56E2,5.8E1,1.65E2,6.5E1,1.23E2,7.2E1,4E0,6.5E1,1.08E2,4.17E2,1.81E2,1.15E2,1.31E2,5.5E1,1.2E2,6.4E1,4.9E1,9.6E1,1.16E2,1.2E2,3.9E1,1.6E1],"tree_param":{"num_deleted":"0","num_feature":"25","num_nodes":"59","size_leaf_vector":"1"}},{"base_weights":[8.400805E-2,7.430433E0,-6.371166E0,-1.3699287E-1,1.274365E1,-1.2942221E1,1.468005E-1,-2.7766345E0,9.053362E0,1.499046E1,7.431205E0,-1.5609387E1,-4.310882E0,-3.6632407E0,6.9862857E0,-1.0386889E1,5.404389E-2,4.0647697E0,1.1911479E1,1.1726974E1,1.7327389E1,4.444904E0,1.4581649E1,-1.2792828E1,-2.0571127E1,-3.918129E-1,-8.431192E0,-5.386003E-1,-9.538297E0,4.6982017E0,1.2771856E1,-3.312365E-2,-5.9707475E-1,-2.1786328E-1,1.707101E-1,-2.0389925E-1,2.7980348E-1,6.913043E-1,2.5671968E-1,8.369977E-1,3.287143E-1,6.8182284E-1,9.21277E-1,4.2202673E-3,4.5798454E-1,5.4608834E-1,8.839659E-1,-8.6703825E-1,-4.4789216E-1,-1.1725768E0,-8.305704E-1,-2.8171209E-1,1.3121393E-1,-6.950603E-1,-2.6054594E-1,-2.2862923E-1,1.5327139E-1,-7.884684E-1,-3.363741E-1,1.07362546E-1,5.8639765E-1,4.3143994E-1,7.597707E-1],"categories":[],"categories_nodes":[],"categories_segments":[],"categories_sizes":[],"default_left":[0,0,0,0,0,0,0,0,0,0,0,0,0,0,0,0,0,0,0,0,0,0,0,0,0,0,0,0,0,0,0,0,0,0,0,0,0,0,0,0,0,0,0,0,0,0,0,0,0,0,0,0,0,0,0,0,0,0,0,0,0,0,0],"id":10,"left_children":[1,3,5,7,9,11,13,15,17,19,21,23,25,27,29,31,33,35,37,39,41,43,45,47,49,51,53,55,57,59,61,-1,-1,-1,-1,-1,-1,-1,-1,-1,-1,-1,-1,-1,-1,-1,-1,-1,-1,-1,-1,-1,-1,-1,-1,-1,-1,-1,-1,-1,-1,-1,-1],"loss_changes":[1.4111138E5,5.59789E4,6.78528E4,1.4006188E4,9.533891E3,1.801411E4,2.0813643E4,9.681541E3,1.7301045E3,3.9678516E3,5.1305146E3,7.896453E3,3.0321672E3,9.392354E3,3.6544102E3,1.8119639E3,4.8993486E3,6.638552E2,8.9788477E2,6.0971914E3,8.460078E2,3.6223147E3,4.3212402E2,6.470004E3,1.7006328E3,1.5924169E3,1.463729E3,4.923637E3,2.8961025E3,3.6644048E3,5.3666504E2,0E0,0E0,0E0,0E0,0E0,0E0,0E0,0E0,0E0,0E0,0E0,0E0,0E0,0E0,0E0,0E0,0E0,0E0,0E0,0E0,0E0,0E0,0E0,0E0,0E0,0E0,0E0,0E0,0E0,0E0,0E0,0E0],"parents":[2147483647,0,0,1,1,2,2,3,3,4,4,5,5,6,6,7,7,8,8,9,9,10,10,11,11,12,12,13,13,14,14,15,15,16,16,17,17,18,18,19,19,20,20,21,21,22,22,23,23,24,24,25,25,26,26,27,27,28,28,29,29,30,30],"right_children":[2,4,6,8,10,12,14,16,18,20,22,24,26,28,30,32,34,36,38,40,42,44,46,48,50,52,54,56,58,60,62,-1,-1,-1,-1,-1,-1,-1,-1,-1,-1,-1,-1,-1,-1,-1,-1,-1,-1,-1,-1,-1,-1,-1,-1,-1,-1,-1,-1,-1,-1,-1,-1],"split_conditions":[-4.463199E-2,-1.7402658E-1,1.0773866E-2,5.892487E-1,-5.6725484E-1,-2.4471505E-2,-1.23718735E-2,-1.2643492E0,-1.0425887E0,4.7277498E-1,8.973692E-1,1.1748213E0,8.2640606E-1,1.1748213E0,1.322857E0,-1.3802236E0,5.310226E-1,-2.093985E-1,-4.511164E-1,4.0572636E-2,-2.093985E-1,5.310226E-1,7.684557E-1,5.310226E-1,-6.729878E-1,5.310226E-1,-8.9474833E-1,5.310226E-1,-2.093985E-1,1.5646135E0,5.310226E-1,-3.312365E-2,-5.9707475E-1,-2.1786328E-1,1.707101E-1,-2.0389925E-1,2.7980348E-1,6.913043E-1,2.5671968E-1,8.369977E-1,3.287143E-1,6.8182284E-1,9.21277E-1,4.2202673E-3,4.5798454E-1,5.4608834E-1,8.839659E-1,-8.6703825E-1,-4.4789216E-1,-1.1725768E0,-8.305704E-1,-2.8171209E-1,1.3121393E-1,-6.950603E-1,-2.6054594E-1,-2.2862923E-1,1.5327139E-1,-7.884684E-1,-3.363741E-1,1.07362546E-1,5.8639765E-1,4.3143994E-1,7.597707E-1],"split_indices":[0,5,5,10,0,10,10,5,5,5,10,0,0,0,5,0,9,9,0,1,9,9,5,9,5,9,5,9,9,10,9,0,0,0,0,0,0,0,0,0,0,0,0,0,0,0,0,0,0,0,0,0,0,0,0,0,0,0,0,0,0,0,0],"split_type":[0,0,0,0,0,0,0,0,0,0,0,0,0,0,0,0,0,0,0,0,0,0,0,0,0,0,0,0,0,0,0,0,0,0,0,0,0,0,0,0,0,0,0,0,0,0,0,0,0,0,0,0,0,0,0,0,0,0,0,0,0,0,0],"sum_hessian":[2.972E3,1.39E3,1.582E3,5.74E2,8.16E2,7.87E2,7.95E2,4.47E2,1.27E2,5.71E2,2.45E2,6E2,1.87E2,5.11E2,2.84E2,1.2E2,3.27E2,4.8E1,7.9E1,2.43E2,3.28E2,1.75E2,7E1,3.87E2,2.13E2,9.7E1,9E1,3.35E2,1.76E2,2.06E2,7.8E1,1.7E1,1.03E2,1.41E2,1.86E2,7E0,4.1E1,6E1,1.9E1,1.21E2,1.22E2,8.1E1,2.47E2,9.2E1,8.3E1,3.6E1,3.4E1,1.74E2,2.13E2,1.18E2,9.5E1,3.5E1,6.2E1,3.1E1,5.9E1,1.58E2,1.77E2,5.2E1,1.24E2,1.53E2,5.3E1,3.2E1,4.6E1],"tree_param":{"num_deleted":"0","num_feature":"25","num_nodes":"63","size_leaf_vector":"1"}},{"base_weights":[-3.3241558E-1,7.4695477E0,-5.7120795E0,8.744628E-1,1.5438961E1,-1.0230566E1,2.539392E0,-2.036713E0,8.124649E0,1.6852892E1,9.539458E0,-1.2875812E1,-5.4974574E-1,-4.1815248E-1,8.413039E0,-5.853572E0,3.1406956E0,-3.9851967E-1,1.0174226E1,1.761876E1,1.3023789E1,6.1585336E0,7.2153527E-1,-1.7763851E1,-9.635846E0,3.0621452E0,-6.939264E0,4.379612E0,-4.3447785E0,3.8294437E0,1.0749221E1,-4.585351E-1,-1.0204746E-1,-8.394553E-2,3.2776472E-1,-5.347772E-1,1.9018206E-1,4.2547438E-1,8.592594E-1,6.546274E-1,9.020788E-1,3.8209927E-1,7.652144E-1,6.0868483E-2,5.587395E-1,-1.1086214E0,-6.695424E-1,-3.680504E-1,-8.0450696E-1,1.2628539E-2,4.9789688E-1,-8.2468903E-1,-2.0568876E-1,3.3919387E-2,3.510278E-1,-5.5791235E-1,-6.840578E-2,9.8345034E-2,5.1833004E-1,2.1627381E-1,6.189421E-1],"categories":[],"categories_nodes":[],"categories_segments":[],"categories_sizes":[],"default_left":[0,0,0,0,0,0,0,0,0,0,0,0,0,0,0,0,0,0,0,0,0,0,0,0,0,0,0,0,0,0,0,0,0,0,0,0,0,0,0,0,0,0,0,0,0,0,0,0,0,0,0,0,0,0,0,0,0,0,0,0,0],"id":11,"left_children":[1,3,5,7,9,11,13,15,17,19,21,23,25,27,29,31,33,35,37,39,41,43,-1,45,47,49,51,53,55,57,59,-1,-1,-1,-1,-1,-1,-1,-1,-1,-1,-1,-1,-1,-1,-1,-1,-1,-1,-1,-1,-1,-1,-1,-1,-1,-1,-1,-1,-1,-1],"loss_changes":[1.2514267E5,6.390986E4,6.585508E4,1.4132055E4,4.273453E3,2.9184945E4,1.0887056E4,9.478362E3,3.3695635E3,8.458047E2,1.6476162E3,1.3845859E4,5.7386113E3,7.9051543E3,2.1549736E3,3.4408877E3,3.3796025E3,1.7603644E3,1.5126738E3,2.3177344E2,7.536201E2,1.6659292E3,0E0,6.2629766E3,7.7283164E3,3.0598499E3,2.2773945E3,1.8276565E3,4.638436E3,8.47067E2,1.3261025E3,0E0,0E0,0E0,0E0,0E0,0E0,0E0,0E0,0E0,0E0,0E0,0E0,0E0,0E0,0E0,0E0,0E0,0E0,0E0,0E0,0E0,0E0,0E0,0E0,0E0,0E0,0E0,0E0,0E0,0E0],"parents":[2147483647,0,0,1,1,2,2,3,3,4,4,5,5,6,6,7,7,8,8,9,9,10,10,11,11,12,12,13,13,14,14,15,15,16,16,17,17,18,18,19,19,20,20,21,21,23,23,24,24,25,25,26,26,27,27,28,28,29,29,30,30],"right_children":[2,4,6,8,10,12,14,16,18,20,22,24,26,28,30,32,34,36,38,40,42,44,-1,46,48,50,52,54,56,58,60,-1,-1,-1,-1,-1,-1,-1,-1,-1,-1,-1,-1,-1,-1,-1,-1,-1,-1,-1,-1,-1,-1,-1,-1,-1,-1,-1,-1,-1,-1],"split_conditions":[-2.7690881E-1,1.5941334E-1,3.9885482E-1,2.9807332E-1,-5.6725484E-1,9.14833E-2,1.4996485E-1,-3.033869E-1,-2.093985E-1,7.5622755E-1,9.14833E-2,-7.65388E-1,8.844753E-1,6.5219843E-1,6.9096833E-1,-9.8342985E-1,5.310226E-1,-1.2273891E0,2.1272464E0,-5.066674E-1,-3.4339553E-1,6.2061536E-1,7.2153527E-1,5.310226E-1,7.5622755E-1,3.188798E-1,-9.5018846E-1,5.310226E-1,-2.093985E-1,7.1527004E-1,-2.093985E-1,-4.585351E-1,-1.0204746E-1,-8.394553E-2,3.2776472E-1,-5.347772E-1,1.9018206E-1,4.2547438E-1,8.592594E-1,6.546274E-1,9.020788E-1,3.8209927E-1,7.652144E-1,6.0868483E-2,5.587395E-1,-1.1086214E0,-6.695424E-1,-3.680504E-1,-8.0450696E-1,1.2628539E-2,4.9789688E-1,-8.2468903E-1,-2.0568876E-1,3.3919387E-2,3.510278E-1,-5.5791235E-1,-6.840578E-2,9.8345034E-2,5.1833004E-1,2.1627381E-1,6.189421E-1],"split_indices":[0,2,5,10,0,10,10,5,9,20,10,5,0,0,2,2,9,5,10,5,1,5,0,9,20,2,5,9,9,7,9,0,0,0,0,0,0,0,0,0,0,0,0,0,0,0,0,0,0,0,0,0,0,0,0,0,0,0,0,0,0],"split_type":[0,0,0,0,0,0,0,0,0,0,0,0,0,0,0,0,0,0,0,0,0,0,0,0,0,0,0,0,0,0,0,0,0,0,0,0,0,0,0,0,0,0,0,0,0,0,0,0,0,0,0,0,0,0,0,0,0,0,0,0,0],"sum_hessian":[2.978E3,1.215E3,1.763E3,6.66E2,5.49E2,1.139E3,6.24E2,4.76E2,1.9E2,4.4E2,1.09E2,8.94E2,2.45E2,4.16E2,2.08E2,2.74E2,2.02E2,3.7E1,1.53E2,3.61E2,7.9E1,6.7E1,4.2E1,3.53E2,5.41E2,1.57E2,8.8E1,1.87E2,2.29E2,7.2E1,1.36E2,1.45E2,1.29E2,8.4E1,1.18E2,1E1,2.7E1,1.27E2,2.6E1,3.6E1,3.25E2,2.6E1,5.3E1,3.5E1,3.2E1,1.72E2,1.81E2,4.03E2,1.38E2,1.13E2,4.4E1,1.8E1,7E1,7.9E1,1.08E2,6.8E1,1.61E2,5.8E1,1.4E1,2.9E1,1.07E2],"tree_param":{"num_deleted":"0","num_feature":"25","num_nodes":"61","size_leaf_vector":"1"}},{"base_weights":[-0E0,-6.1027284E0,6.5399437E0,-8.984513E0,2.8106992E0,3.9679039E0,1.3417833E1,-1.29021635E1,-4.8548303E0,-1.5479125E-2,1.057539E1,2.6411676E0,8.3950406E-1,1.1816871E1,9.183449E-1,-1.8485554E1,-1.0491014E1,-1.0918443E1,-2.752008E0,-4.335877E0,2.9240377E0,7.968051E0,9.074589E-1,-2.917119E0,4.63029E0,3.5086052E0,1.2219582E1,-1.0836806E0,-7.201114E-1,-6.895085E-1,-4.2545047E-1,-6.2938076E-1,-2.873827E-1,-3.7802687E-1,-3.454272E-2,-3.8958874E-1,-4.2249154E-2,1.5192983E-2,3.796332E-1,1.1252667E-1,5.026711E-1,-2.8363314E-1,1.4395303E-1,-5.9544086E-3,3.4920633E-1,3.2526085E-1,-3.08619E-1,5.75691E-1,8.639156E-1],"categories":[],"categories_nodes":[],"categories_segments":[],"categories_sizes":[],"default_left":[0,0,0,0,0,0,0,0,0,0,0,0,0,0,0,0,0,0,0,0,0,0,0,0,0,0,0,0,0,0,0,0,0,0,0,0,0,0,0,0,0,0,0,0,0,0,0,0,0],"id":12,"left_children":[1,3,5,7,9,11,13,15,17,19,21,23,-1,25,-1,27,29,31,33,35,37,39,-1,41,43,45,47,-1,-1,-1,-1,-1,-1,-1,-1,-1,-1,-1,-1,-1,-1,-1,-1,-1,-1,-1,-1,-1,-1],"loss_changes":[1.2111528E5,4.0375652E4,2.5795926E4,1.9066781E4,8.457172E3,1.807891E4,2.7249844E3,7.798586E3,7.335117E3,3.6287415E3,1.7383916E3,1.0759643E4,0E0,9.271094E2,0E0,1.7484727E3,2.5659258E3,1.1320527E3,4.2801387E3,1.3748162E3,2.0634722E3,8.959761E2,0E0,4.1342627E3,8.0118506E3,5.6004474E2,6.4558594E2,0E0,0E0,0E0,0E0,0E0,0E0,0E0,0E0,0E0,0E0,0E0,0E0,0E0,0E0,0E0,0E0,0E0,0E0,0E0,0E0,0E0,0E0],"parents":[2147483647,0,0,1,1,2,2,3,3,4,4,5,5,6,6,7,7,8,8,9,9,10,10,11,11,13,13,15,15,16,16,17,17,18,18,19,19,20,20,21,21,23,23,24,24,25,25,26,26],"right_children":[2,4,6,8,10,12,14,16,18,20,22,24,-1,26,-1,28,30,32,34,36,38,40,-1,42,44,46,48,-1,-1,-1,-1,-1,-1,-1,-1,-1,-1,-1,-1,-1,-1,-1,-1,-1,-1,-1,-1,-1,-1],"split_conditions":[7.968009E-2,1.8828036E-1,5.385647E-1,-5.8058757E-1,1.3786536E0,4.4730754E0,2.2179935E0,-2.093985E-1,-2.093985E-1,5.310226E-1,2.3339484E0,-2.093985E-1,8.3950406E-1,-6.5450776E-1,9.183449E-1,-1.0365853E0,-1.3752295E0,4.7277498E-1,-8.276854E-1,6.617051E-2,-1.1858645E-1,5.310226E-1,9.074589E-1,1.1750166E0,8.469404E-2,-1.3673106E0,4.4730754E0,-1.0836806E0,-7.201114E-1,-6.895085E-1,-4.2545047E-1,-6.2938076E-1,-2.873827E-1,-3.7802687E-1,-3.454272E-2,-3.8958874E-1,-4.2249154E-2,1.5192983E-2,3.796332E-1,1.1252667E-1,5.026711E-1,-2.8363314E-1,1.4395303E-1,-5.9544086E-3,3.4920633E-1,3.2526085E-1,-3.08619E-1,5.75691E-1,8.639156E-1],"split_indices":[2,10,10,5,10,24,10,9,9,9,10,9,0,5,0,2,5,5,10,1,5,9,0,5,5,1,24,0,0,0,0,0,0,0,0,0,0,0,0,0,0,0,0,0,0,0,0,0,0],"split_type":[0,0,0,0,0,0,0,0,0,0,0,0,0,0,0,0,0,0,0,0,0,0,0,0,0,0,0,0,0,0,0,0,0,0,0,0,0,0,0,0,0,0,0,0,0,0,0,0,0],"sum_hessian":[3.031E3,1.568E3,1.463E3,1.185E3,3.83E2,1.067E3,3.96E2,6.06E2,5.79E2,2.82E2,1.01E2,9.69E2,9.8E1,3.04E2,9.2E1,1.79E2,4.27E2,1.47E2,4.32E2,1.14E2,1.68E2,7.8E1,2.3E1,2.55E2,7.14E2,1.5E1,2.89E2,9.6E1,8.3E1,1.56E2,2.71E2,1.09E2,3.8E1,1.28E2,3.04E2,5.6E1,5.8E1,1.09E2,5.9E1,2.2E1,5.6E1,1.73E2,8.2E1,2.37E2,4.77E2,1.2E1,3E0,2.59E2,3E1],"tree_param":{"num_deleted":"0","num_feature":"25","num_nodes":"49","size_leaf_vector":"1"}},{"base_weights":[6.930748E-3,1.027862E1,-5.668442E0,1.3363735E1,5.8967175E0,-8.365566E0,2.3552723E0,1.4599201E1,8.225046E0,2.580968E0,1.0769597E1,-5.2342596E0,-1.4680441E1,8.677899E-2,9.488166E0,5.8921056E0,1.5126712E1,2.0957465E0,1.1695916E1,-4.1911325E0,5.1636543E0,5.8030696E0,1.2245585E1,-8.761694E0,-2.313565E0,-7.073808E0,-1.7587774E1,4.3559513E0,-2.9483821E0,6.8747888E0,1.487156E1,-5.6161046E-2,4.1927838E-1,5.786125E-1,8.02858E-1,-5.0524402E-2,4.003592E-1,4.1934162E-1,7.5598377E-1,-6.2165804E-2,-5.181715E-1,4.6123645E-1,1.5436931E-1,5.2174713E-2,4.758656E-1,-4.215913E-2,6.279684E-1,-3.5376248E-1,-6.549889E-1,-2.325978E-2,-4.0620646E-1,-5.762324E-1,-8.534809E-2,-1.1894834E0,-7.406245E-1,7.118734E-2,3.447832E-1,3.7152987E-2,-3.0674556E-1,1.0907564E-1,4.2443463E-1,2.576145E-1,7.712166E-1],"categories":[],"categories_nodes":[],"categories_segments":[],"categories_sizes":[],"default_left":[0,0,0,0,0,0,0,0,0,0,0,0,0,0,0,0,0,0,0,0,0,0,0,0,0,0,0,0,0,0,0,0,0,0,0,0,0,0,0,0,0,0,0,0,0,0,0,0,0,0,0,0,0,0,0,0,0,0,0,0,0,0,0],"id":13,"left_children":[1,3,5,7,9,11,13,15,17,19,21,23,25,27,29,31,33,35,37,39,41,43,45,47,49,51,53,55,57,59,61,-1,-1,-1,-1,-1,-1,-1,-1,-1,-1,-1,-1,-1,-1,-1,-1,-1,-1,-1,-1,-1,-1,-1,-1,-1,-1,-1,-1,-1,-1,-1,-1],"loss_changes":[1.753938E5,1.4310836E4,4.1978516E4,3.7358203E3,7.1368477E3,2.8525648E4,7.8962617E3,2.12375E3,2.6155996E3,4.724001E3,1.1684609E3,9.972553E3,1.0357242E4,4.8554087E3,1.4471836E3,5.8192883E2,1.1960391E3,9.006787E2,6.4763574E2,1.3238501E3,1.5764907E3,7.614348E2,5.9496094E2,3.026504E3,5.7266787E3,3.192564E3,5.2713047E3,1.1325808E3,2.588395E3,5.810315E2,2.9970215E1,0E0,0E0,0E0,0E0,0E0,0E0,0E0,0E0,0E0,0E0,0E0,0E0,0E0,0E0,0E0,0E0,0E0,0E0,0E0,0E0,0E0,0E0,0E0,0E0,0E0,0E0,0E0,0E0,0E0,0E0,0E0,0E0],"parents":[2147483647,0,0,1,1,2,2,3,3,4,4,5,5,6,6,7,7,8,8,9,9,10,10,11,11,12,12,13,13,14,14,15,15,16,16,17,17,18,18,19,19,20,20,21,21,22,22,23,23,24,24,25,25,26,26,27,27,28,28,29,29,30,30],"right_children":[2,4,6,8,10,12,14,16,18,20,22,24,26,28,30,32,34,36,38,40,42,44,46,48,50,52,54,56,58,60,62,-1,-1,-1,-1,-1,-1,-1,-1,-1,-1,-1,-1,-1,-1,-1,-1,-1,-1,-1,-1,-1,-1,-1,-1,-1,-1,-1,-1,-1,-1,-1,-1],"split_conditions":[-5.512193E-1,-7.1998745E-1,9.14833E-2,-2.7690881E-1,-2.4471505E-2,5.7189715E-1,1.4384075E0,1.3283558E-1,5.310226E-1,-2.093985E-1,-2.093985E-1,5.310226E-1,1.3437213E-2,-9.213363E-2,2.1272464E0,-6.2497216E-1,-2.093985E-1,-3.3344567E-2,2.1975778E-1,1.1661218E0,-5.091856E-1,-3.4634787E-1,-1.2794702E0,1.0978061E0,6.195961E-1,-3.5216987E-1,-2.093985E-1,-3.786378E-1,3.6185244E-1,5.310226E-1,-5.154041E-1,-5.6161046E-2,4.1927838E-1,5.786125E-1,8.02858E-1,-5.0524402E-2,4.003592E-1,4.1934162E-1,7.5598377E-1,-6.2165804E-2,-5.181715E-1,4.6123645E-1,1.5436931E-1,5.2174713E-2,4.758656E-1,-4.215913E-2,6.279684E-1,-3.5376248E-1,-6.549889E-1,-2.325978E-2,-4.0620646E-1,-5.762324E-1,-8.534809E-2,-1.1894834E0,-7.406245E-1,7.118734E-2,3.447832E-1,3.7152987E-2,-3.0674556E-1,1.0907564E-1,4.2443463E-1,2.576145E-1,7.712166E-1],"split_indices":[3,3,10,6,10,3,10,2,9,9,9,9,6,3,10,1,9,10,1,20,6,4,8,20,20,10,9,4,6,9,4,0,0,0,0,0,0,0,0,0,0,0,0,0,0,0,0,0,0,0,0,0,0,0,0,0,0,0,0,0,0,0,0],"split_type":[0,0,0,0,0,0,0,0,0,0,0,0,0,0,0,0,0,0,0,0,0,0,0,0,0,0,0,0,0,0,0,0,0,0,0,0,0,0,0,0,0,0,0,0,0,0,0,0,0,0,0,0,0,0,0,0,0,0,0,0,0,0,0],"sum_hessian":[3.005E3,1.069E3,1.936E3,6.25E2,4.44E2,1.449E3,4.87E2,5.01E2,1.24E2,2.66E2,1.78E2,9.71E2,4.78E2,3.71E2,1.16E2,3E1,4.71E2,4.6E1,7.8E1,7.3E1,1.93E2,4.3E1,1.35E2,4.38E2,5.33E2,1.34E2,3.44E2,1.54E2,2.17E2,8.1E1,3.5E1,8E0,2.2E1,1.03E2,3.68E2,3.1E1,1.5E1,4.3E1,3.5E1,5.1E1,2.2E1,6.3E1,1.3E2,2E1,2.3E1,3E0,1.32E2,3.19E2,1.19E2,4.06E2,1.27E2,7.2E1,6.2E1,1.02E2,2.42E2,7.3E1,8.1E1,1.01E2,1.16E2,2.2E1,5.9E1,3E0,3.2E1],"tree_param":{"num_deleted":"0","num_feature":"25","num_nodes":"63","size_leaf_vector":"1"}},{"base_weights":[-2.386217E-1,6.0454245E0,-5.467438E0,5.4245186E-1,1.24930935E1,-1.1082513E1,1.9209877E-1,2.5528297E0,-7.1417737E0,1.4290623E1,7.2568626E0,-8.932044E0,-1.8939577E1,-2.0276663E0,5.7667856E0,-3.5947087E0,4.6387687E0,-1.2499821E1,-3.5006075E0,7.076872E0,1.4597108E1,3.5139892E0,1.0120059E1,-1.2993606E1,-5.8594217E0,-2.3198835E1,-1.4802265E1,-7.874026E0,-7.849247E-2,2.2632211E-1,7.9108567E0,-5.4808444E-1,-2.309761E-2,4.153162E-1,1.1470314E-1,-2.3842251E-1,-7.384391E-1,-3.551745E-1,6.6488073E-3,1.5240231E-1,5.1329535E-1,7.651121E-1,5.541048E-1,-3.821704E-2,2.856734E-1,5.782416E-1,2.0302124E-1,-9.019376E-1,-4.697723E-1,-2.0236842E-1,-6.4136344E-1,-8.382129E-1,-1.2628299E0,-1.945372E-1,-7.856714E-1,-2.45838E-1,-6.6614676E-1,1.1928954E-1,-2.2834018E-1,2.819743E-1,-1.5723549E-1,6.160824E-1,2.7067482E-1],"categories":[],"categories_nodes":[],"categories_segments":[],"categories_sizes":[],"default_left":[0,0,0,0,0,0,0,0,0,0,0,0,0,0,0,0,0,0,0,0,0,0,0,0,0,0,0,0,0,0,0,0,0,0,0,0,0,0,0,0,0,0,0,0,0,0,0,0,0,0,0,0,0,0,0,0,0,0,0,0,0,0,0],"id":14,"left_children":[1,3,5,7,9,11,13,15,17,19,21,23,25,27,29,31,33,35,37,39,41,43,45,47,49,51,53,55,57,59,61,-1,-1,-1,-1,-1,-1,-1,-1,-1,-1,-1,-1,-1,-1,-1,-1,-1,-1,-1,-1,-1,-1,-1,-1,-1,-1,-1,-1,-1,-1,-1,-1],"loss_changes":[9.961235E4,4.882288E4,5.260434E4,1.1533128E4,5.7529766E3,1.3699547E4,1.0244393E4,7.6201494E3,2.9221143E3,8.267344E2,1.6964365E3,8.0244883E3,2.451832E3,6.733243E3,2.7881152E3,3.457483E3,3.7607656E3,9.3389746E2,1.2511272E3,2.2063525E2,7.7546875E2,7.17675E2,7.091699E2,4.7594414E3,4.6438174E3,2.9702344E2,8.0894727E2,2.241833E3,4.952987E3,1.2721268E3,1.7290557E3,0E0,0E0,0E0,0E0,0E0,0E0,0E0,0E0,0E0,0E0,0E0,0E0,0E0,0E0,0E0,0E0,0E0,0E0,0E0,0E0,0E0,0E0,0E0,0E0,0E0,0E0,0E0,0E0,0E0,0E0,0E0,0E0],"parents":[2147483647,0,0,1,1,2,2,3,3,4,4,5,5,6,6,7,7,8,8,9,9,10,10,11,11,12,12,13,13,14,14,15,15,16,16,17,17,18,18,19,19,20,20,21,21,22,22,23,23,24,24,25,25,26,26,27,27,28,28,29,29,30,30],"right_children":[2,4,6,8,10,12,14,16,18,20,22,24,26,28,30,32,34,36,38,40,42,44,46,48,50,52,54,56,58,60,62,-1,-1,-1,-1,-1,-1,-1,-1,-1,-1,-1,-1,-1,-1,-1,-1,-1,-1,-1,-1,-1,-1,-1,-1,-1,-1,-1,-1,-1,-1,-1,-1],"split_conditions":[-1.02701195E-1,7.968009E-2,1.0773866E-2,5.5128044E-1,-5.091856E-1,4.14649E-1,1.1750166E0,-1.171949E0,-9.317084E-1,1.5941334E-1,5.310226E-1,5.310226E-1,-7.7080786E-1,-2.093985E-1,-2.093985E-1,-2.093985E-1,-1.0898776E0,-1.2640853E0,5.310226E-1,4.0001327E-1,7.5622755E-1,3.4341466E-1,4.8296472E-1,-9.132284E-1,1.407098E0,3.6185244E-1,-1.0476007E0,1.116752E0,1.1748213E0,4.1992164E-1,5.3606004E-1,-5.4808444E-1,-2.309761E-2,4.153162E-1,1.1470314E-1,-2.3842251E-1,-7.384391E-1,-3.551745E-1,6.6488073E-3,1.5240231E-1,5.1329535E-1,7.651121E-1,5.541048E-1,-3.821704E-2,2.856734E-1,5.782416E-1,2.0302124E-1,-9.019376E-1,-4.697723E-1,-2.0236842E-1,-6.4136344E-1,-8.382129E-1,-1.2628299E0,-1.945372E-1,-7.856714E-1,-2.45838E-1,-6.6614676E-1,1.1928954E-1,-2.2834018E-1,2.819743E-1,-1.5723549E-1,6.160824E-1,2.7067482E-1],"split_indices":[0,2,5,20,0,20,5,5,5,2,9,9,2,9,9,9,0,0,9,7,20,5,20,5,0,0,4,0,0,0,0,0,0,0,0,0,0,0,0,0,0,0,0,0,0,0,0,0,0,0,0,0,0,0,0,0,0,0,0,0,0,0,0],"split_type":[0,0,0,0,0,0,0,0,0,0,0,0,0,0,0,0,0,0,0,0,0,0,0,0,0,0,0,0,0,0,0,0,0,0,0,0,0,0,0,0,0,0,0,0,0,0,0,0,0,0,0,0,0,0,0,0,0,0,0,0,0,0,0],"sum_hessian":[3.028E3,1.375E3,1.653E3,7.43E2,6.32E2,8.29E2,8.24E2,5.9E2,1.53E2,4.68E2,1.64E2,6.54E2,1.75E2,5.9E2,2.34E2,1.49E2,4.41E2,6E1,9.3E1,2.1E1,4.47E2,7.3E1,9.1E1,2.79E2,3.75E2,8.2E1,9.3E1,1.46E2,4.44E2,6.6E1,1.68E2,4.3E1,1.06E2,1.7E2,2.71E2,1.5E1,4.5E1,4.6E1,4.7E1,1.1E1,1E1,3.67E2,8E1,2.5E1,4.8E1,7.2E1,1.9E1,1.13E2,1.66E2,3E2,7.5E1,2.4E1,5.8E1,8E0,8.5E1,9.7E1,4.9E1,2.87E2,1.57E2,2.5E1,4.1E1,5.8E1,1.1E2],"tree_param":{"num_deleted":"0","num_feature":"25","num_nodes":"63","size_leaf_vector":"1"}},{"base_weights":[-6.018777E-2,6.38523E0,-4.608578E0,-1.3947499E0,9.903627E0,-1.0656437E1,-2.3338181E-1,-7.2705092E0,8.4965396E-1,1.1649679E1,5.1282606E0,-8.530044E0,-1.8332006E1,4.040027E0,-3.527861E0,-1.037086E0,-1.1050503E1,-6.3252034E0,2.3331301E0,9.872497E0,1.4868795E1,8.802926E0,2.1323802E0,-6.510244E0,-1.5020629E1,-1.5540423E1,-1.2013353E0,1.08694874E-1,6.970007E0,-6.892538E0,4.8912618E-1,-2.2737567E-1,1.9079408E-1,-4.0704867E-1,-9.383072E-1,5.7765346E-2,-4.0495887E-1,3.7109217E-1,2.9562956E-2,2.3283048E-1,5.721324E-1,7.8001547E-1,5.479863E-1,1.0424405E-1,5.4357165E-1,2.865517E-3,3.6987096E-1,-4.8487264E-1,-1.8711984E-1,-8.485301E-1,-4.9981123E-1,-1.0138412E0,-5.473709E-1,8.117315E-2,-3.1797025E-1,2.1017097E-1,5.6387895E-1,-2.4751976E-1,-6.402399E-1,-3.1379586E-1,1.5576981E-1],"categories":[],"categories_nodes":[],"categories_segments":[],"categories_sizes":[],"default_left":[0,0,0,0,0,0,0,0,0,0,0,0,0,0,0,0,0,0,0,0,0,0,0,0,0,0,0,0,0,0,0,0,0,0,0,0,0,0,0,0,0,0,0,0,0,0,0,0,0,0,0,0,0,0,0,0,0,0,0,0,0],"id":15,"left_children":[1,3,5,7,9,11,13,15,17,19,21,23,25,27,29,31,33,35,37,39,41,43,45,47,49,51,-1,53,55,57,59,-1,-1,-1,-1,-1,-1,-1,-1,-1,-1,-1,-1,-1,-1,-1,-1,-1,-1,-1,-1,-1,-1,-1,-1,-1,-1,-1,-1,-1,-1],"loss_changes":[8.814038E4,3.4081688E4,4.6627156E4,5.146154E3,7.016367E3,1.1760773E4,1.4452849E4,2.5048823E3,3.0318198E3,3.2862578E3,2.5159517E3,7.4384688E3,1.8049023E3,5.1367075E3,7.8502524E3,7.612534E2,1.1923042E3,6.727623E2,2.0725889E3,3.2327305E3,2.8604297E2,1.3860913E3,1.4193237E3,3.8689062E3,1.00257227E3,1.9951016E3,0E0,1.9018915E3,2.9445342E3,3.49075E3,4.7538237E3,0E0,0E0,0E0,0E0,0E0,0E0,0E0,0E0,0E0,0E0,0E0,0E0,0E0,0E0,0E0,0E0,0E0,0E0,0E0,0E0,0E0,0E0,0E0,0E0,0E0,0E0,0E0,0E0,0E0,0E0],"parents":[2147483647,0,0,1,1,2,2,3,3,4,4,5,5,6,6,7,7,8,8,9,9,10,10,11,11,12,12,13,13,14,14,15,15,16,16,17,17,18,18,19,19,20,20,21,21,22,22,23,23,24,24,25,25,27,27,28,28,29,29,30,30],"right_children":[2,4,6,8,10,12,14,16,18,20,22,24,26,28,30,32,34,36,38,40,42,44,46,48,50,52,-1,54,56,58,60,-1,-1,-1,-1,-1,-1,-1,-1,-1,-1,-1,-1,-1,-1,-1,-1,-1,-1,-1,-1,-1,-1,-1,-1,-1,-1,-1,-1,-1,-1],"split_conditions":[-2.7690881E-1,-4.8818734E-1,-1.7402658E-1,-2.093985E-1,3.0007455E-1,4.14649E-1,6.5219843E-1,-1.2060161E0,-1.6893903E0,9.1629606E-1,-1.0898776E0,1.349029E0,1.2328905E0,5.310226E-1,6.760555E-1,-9.686685E-1,4.14649E-1,-1.4382929E0,-8.628621E-1,-2.093985E-1,-5.091856E-1,-2.093985E-1,5.0973505E-1,-8.9474833E-1,-5.8058757E-1,5.310226E-1,-1.2013353E0,1.0978061E0,8.371774E-1,4.14649E-1,-2.093985E-1,-2.2737567E-1,1.9079408E-1,-4.0704867E-1,-9.383072E-1,5.7765346E-2,-4.0495887E-1,3.7109217E-1,2.9562956E-2,2.3283048E-1,5.721324E-1,7.8001547E-1,5.479863E-1,1.0424405E-1,5.4357165E-1,2.865517E-3,3.6987096E-1,-4.8487264E-1,-1.8711984E-1,-8.485301E-1,-4.9981123E-1,-1.0138412E0,-5.473709E-1,8.117315E-2,-3.1797025E-1,2.1017097E-1,5.6387895E-1,-2.4751976E-1,-6.402399E-1,-3.1379586E-1,1.5576981E-1],"split_indices":[0,5,5,9,4,20,0,0,5,5,0,0,0,9,5,5,20,0,4,9,0,9,5,5,5,9,0,20,8,20,9,0,0,0,0,0,0,0,0,0,0,0,0,0,0,0,0,0,0,0,0,0,0,0,0,0,0,0,0,0,0],"split_type":[0,0,0,0,0,0,0,0,0,0,0,0,0,0,0,0,0,0,0,0,0,0,0,0,0,0,0,0,0,0,0,0,0,0,0,0,0,0,0,0,0,0,0,0,0,0,0,0,0,0,0,0,0,0,0,0,0,0,0,0,0],"sum_hessian":[3.003E3,1.242E3,1.761E3,3.87E2,8.55E2,7.38E2,1.023E3,1.06E2,2.81E2,6.24E2,2.31E2,5.81E2,1.57E2,4.45E2,5.78E2,4.1E1,6.5E1,4.7E1,2.34E2,4.07E2,2.17E2,1.02E2,1.29E2,4.46E2,1.35E2,1.1E2,4.7E1,1.91E2,2.54E2,3.14E2,2.64E2,2.4E1,1.7E1,5E1,1.5E1,9E0,3.8E1,5.8E1,1.76E2,9.6E1,3.11E2,1.78E2,3.9E1,2.5E1,7.7E1,9.4E1,3.5E1,2.05E2,2.41E2,9.4E1,4.1E1,5.1E1,5.9E1,1.56E2,3.5E1,1.57E2,9.7E1,2.39E2,7.5E1,7.3E1,1.91E2],"tree_param":{"num_deleted":"0","num_feature":"25","num_nodes":"61","size_leaf_vector":"1"}},{"base_weights":[-1.2025415E-1,-4.7638273E0,5.481477E0,-7.091639E0,2.642657E0,3.5477462E0,1.1269448E1,-1.0356673E1,-3.7194414E0,6.143937E-1,9.105057E0,-1.4138578E0,5.2090864E0,9.7519045E0,8.0694485E-1,-8.444607E0,-1.5879106E1,-6.8732805E0,-1.3277357E0,-8.1371045E-1,7.2470055E0,5.8957047E0,7.103383E-1,-3.8409724E0,3.5182805E0,2.646916E0,7.790581E0,2.7667344E0,1.0002777E1,-5.515776E-1,-3.0050477E-1,-9.4785607E-1,-4.2593905E-1,-4.88444E-1,-1.8237476E-1,-1.4768437E-1,1.8994868E-1,-2.0765996E-1,7.667024E-2,5.3015E-1,1.0822169E-1,-8.4048495E-2,3.5618594E-1,-1.194907E-1,-4.546941E-1,3.3772537E-1,-6.538411E-2,-7.0886314E-2,2.1764913E-1,5.109778E-1,2.2440358E-1,-1.5829553E-1,2.7865815E-1,6.0027426E-1,4.5340005E-1],"categories":[],"categories_nodes":[],"categories_segments":[],"categories_sizes":[],"default_left":[0,0,0,0,0,0,0,0,0,0,0,0,0,0,0,0,0,0,0,0,0,0,0,0,0,0,0,0,0,0,0,0,0,0,0,0,0,0,0,0,0,0,0,0,0,0,0,0,0,0,0,0,0,0,0],"id":16,"left_children":[1,3,5,7,9,11,13,15,17,19,21,23,25,27,-1,29,31,33,35,37,39,41,-1,43,45,47,49,51,53,-1,-1,-1,-1,-1,-1,-1,-1,-1,-1,-1,-1,-1,-1,-1,-1,-1,-1,-1,-1,-1,-1,-1,-1,-1,-1],"loss_changes":[7.8103086E4,2.834518E4,1.5140844E4,1.36745E4,5.1399805E3,8.448662E3,2.196621E3,6.4218984E3,4.633832E3,2.8770024E3,1.360916E3,3.1108008E3,5.0221484E3,3.9714062E2,0E0,2.8504688E3,3.3193008E3,2.4024893E3,2.9683828E3,1.9725807E3,8.61041E2,5.937849E2,0E0,1.2719438E3,1.3624521E3,2.70385E3,2.954459E3,2.3111276E2,2.5388867E2,0E0,0E0,0E0,0E0,0E0,0E0,0E0,0E0,0E0,0E0,0E0,0E0,0E0,0E0,0E0,0E0,0E0,0E0,0E0,0E0,0E0,0E0,0E0,0E0,0E0,0E0],"parents":[2147483647,0,0,1,1,2,2,3,3,4,4,5,5,6,6,7,7,8,8,9,9,10,10,11,11,12,12,13,13,15,15,16,16,17,17,18,18,19,19,20,20,21,21,23,23,24,24,25,25,26,26,27,27,28,28],"right_children":[2,4,6,8,10,12,14,16,18,20,22,24,26,28,-1,30,32,34,36,38,40,42,-1,44,46,48,50,52,54,-1,-1,-1,-1,-1,-1,-1,-1,-1,-1,-1,-1,-1,-1,-1,-1,-1,-1,-1,-1,-1,-1,-1,-1,-1,-1],"split_conditions":[1.5941334E-1,2.2760415E-1,7.53602E-1,-5.8058757E-1,1.4384075E0,-2.093985E-1,2.5870323E0,4.8296472E-1,5.310226E-1,4.9125504E-1,2.1272464E0,1.1750166E0,6.2061536E-1,-6.729878E-1,8.0694485E-1,5.310226E-1,3.606328E0,-5.050304E-1,4.358149E-1,5.310226E-1,8.848244E-1,-1.1904291E0,7.103383E-1,1.0754612E-1,1.5700544E0,-5.355129E-1,1.2992609E0,5.310226E-1,2.6234296E-1,-5.515776E-1,-3.0050477E-1,-9.4785607E-1,-4.2593905E-1,-4.88444E-1,-1.8237476E-1,-1.4768437E-1,1.8994868E-1,-2.0765996E-1,7.667024E-2,5.3015E-1,1.0822169E-1,-8.4048495E-2,3.5618594E-1,-1.194907E-1,-4.546941E-1,3.3772537E-1,-6.538411E-2,-7.0886314E-2,2.1764913E-1,5.109778E-1,2.2440358E-1,-1.5829553E-1,2.7865815E-1,6.0027426E-1,4.5340005E-1],"split_indices":[2,10,10,5,10,9,10,20,9,5,10,5,5,5,0,9,11,2,5,9,8,5,0,7,8,10,8,9,8,0,0,0,0,0,0,0,0,0,0,0,0,0,0,0,0,0,0,0,0,0,0,0,0,0,0],"split_type":[0,0,0,0,0,0,0,0,0,0,0,0,0,0,0,0,0,0,0,0,0,0,0,0,0,0,0,0,0,0,0,0,0,0,0,0,0,0,0,0,0,0,0,0,0,0,0,0,0,0,0,0,0,0,0],"sum_hessian":[2.999E3,1.64E3,1.359E3,1.248E3,3.92E2,1.021E3,3.38E2,6.32E2,6.16E2,3E2,9.2E1,2.56E2,7.65E2,2.62E2,7.6E1,4.73E2,1.59E2,2.64E2,3.52E2,2.48E2,5.2E1,5.9E1,3.3E1,1.72E2,8.4E1,3.86E2,3.79E2,1E1,2.52E2,2.26E2,2.47E2,1.1E2,4.9E1,1.37E2,1.27E2,2.68E2,8.4E1,1.02E2,1.46E2,3E1,2.2E1,8E0,5.1E1,1.37E2,3.5E1,5E1,3.4E1,1.14E2,2.72E2,2.16E2,1.63E2,3E0,7E0,7.3E1,1.79E2],"tree_param":{"num_deleted":"0","num_feature":"25","num_nodes":"55","size_leaf_vector":"1"}},{"base_weights":[7.3624484E-2,6.797365E0,-6.341795E0,1.0525053E1,2.4467432E0,-2.9612353E0,-1.0458978E1,1.26410475E1,6.3956923E0,-3.4233735E0,4.16047E0,-1.0344526E0,-1.0716147E1,-1.4721661E1,-7.3492675E0,6.5627813E0,1.322566E1,7.7549744E0,-1.329426E-1,-1.9134157E0,-1.1602797E1,1.586734E0,7.7117643E0,-4.7192454E0,1.7751515E0,-1.4094601E1,-6.9319315E0,-9.775721E0,-1.7552515E1,-5.784139E0,-1.45118265E1,4.5030737E-1,3.634694E-2,6.9379896E-1,4.9075013E-1,2.2698866E-1,5.2493405E-1,-2.1120799E-1,1.7322277E-1,-2.2891882E-1,8.027576E-2,-6.3768953E-1,-1.0070547E-1,1.5311427E-1,-2.7710274E-1,4.4386536E-1,7.764581E-2,-4.282925E-1,-1.0867275E-1,3.1741646E-1,-2.1976452E-2,-3.9538583E-1,-8.7693197E-1,6.3665904E-2,-3.7484416E-1,-5.3681415E-1,-2.1621922E-1,-1.146774E0,-7.3988414E-1,-4.328408E-1,-1.7683135E-1,-8.685104E-1,-5.6989455E-1],"categories":[],"categories_nodes":[],"categories_segments":[],"categories_sizes":[],"default_left":[0,0,0,0,0,0,0,0,0,0,0,0,0,0,0,0,0,0,0,0,0,0,0,0,0,0,0,0,0,0,0,0,0,0,0,0,0,0,0,0,0,0,0,0,0,0,0,0,0,0,0,0,0,0,0,0,0,0,0,0,0,0,0],"id":17,"left_children":[1,3,5,7,9,11,13,15,17,19,21,23,25,27,29,31,33,35,37,39,41,43,45,47,49,51,53,55,57,59,61,-1,-1,-1,-1,-1,-1,-1,-1,-1,-1,-1,-1,-1,-1,-1,-1,-1,-1,-1,-1,-1,-1,-1,-1,-1,-1,-1,-1,-1,-1,-1,-1],"loss_changes":[1.3081357E5,2.3953344E4,2.1526691E4,6.793828E3,6.925516E3,1.2738393E4,9.041859E3,1.6848672E3,2.4407725E3,1.8680398E3,4.8275195E3,7.128921E3,1.9697617E3,3.7579023E3,4.396125E3,6.866389E2,7.8396875E2,1.8968945E3,7.454792E2,1.2715498E3,1.987102E2,3.2968452E3,1.5620146E3,2.869852E3,3.9701853E3,1.5906523E3,4.1311157E2,4.7854395E2,2.069414E3,2.1112217E3,2.481875E2,0E0,0E0,0E0,0E0,0E0,0E0,0E0,0E0,0E0,0E0,0E0,0E0,0E0,0E0,0E0,0E0,0E0,0E0,0E0,0E0,0E0,0E0,0E0,0E0,0E0,0E0,0E0,0E0,0E0,0E0,0E0,0E0],"parents":[2147483647,0,0,1,1,2,2,3,3,4,4,5,5,6,6,7,7,8,8,9,9,10,10,11,11,12,12,13,13,14,14,15,15,16,16,17,17,18,18,19,19,20,20,21,21,22,22,23,23,24,24,25,25,26,26,27,27,28,28,29,29,30,30],"right_children":[2,4,6,8,10,12,14,16,18,20,22,24,26,28,30,32,34,36,38,40,42,44,46,48,50,52,54,56,58,60,62,-1,-1,-1,-1,-1,-1,-1,-1,-1,-1,-1,-1,-1,-1,-1,-1,-1,-1,-1,-1,-1,-1,-1,-1,-1,-1,-1,-1,-1,-1,-1,-1],"split_conditions":[-3.799251E-1,-6.6574085E-1,5.9412926E-1,-5.091856E-1,-2.093985E-1,5.5128044E-1,-2.5668323E-1,1.3283558E-1,1.0294904E0,1.4393847E0,-3.417645E-1,5.310226E-1,5.310226E-1,6.075819E-1,7.5622755E-1,3.606328E0,1.0294904E0,5.310226E-1,-3.689934E-1,-2.587195E-1,-1.135832E-1,3.1415863E0,5.5128044E-1,-9.8560977E-1,-7.414624E-1,-1.8039306E-3,-1.2060161E0,1.238195E0,-2.093985E-1,5.310226E-1,1.9859103E0,4.5030737E-1,3.634694E-2,6.9379896E-1,4.9075013E-1,2.2698866E-1,5.2493405E-1,-2.1120799E-1,1.7322277E-1,-2.2891882E-1,8.027576E-2,-6.3768953E-1,-1.0070547E-1,1.5311427E-1,-2.7710274E-1,4.4386536E-1,7.764581E-2,-4.282925E-1,-1.0867275E-1,3.1741646E-1,-2.1976452E-2,-3.9538583E-1,-8.7693197E-1,6.3665904E-2,-3.7484416E-1,-5.3681415E-1,-2.1621922E-1,-1.146774E0,-7.3988414E-1,-4.328408E-1,-1.7683135E-1,-8.685104E-1,-5.6989455E-1],"split_indices":[3,3,0,0,9,20,8,2,20,20,4,9,9,3,20,11,20,9,1,4,4,16,20,8,0,3,0,9,9,9,20,0,0,0,0,0,0,0,0,0,0,0,0,0,0,0,0,0,0,0,0,0,0,0,0,0,0,0,0,0,0,0,0],"split_type":[0,0,0,0,0,0,0,0,0,0,0,0,0,0,0,0,0,0,0,0,0,0,0,0,0,0,0,0,0,0,0,0,0,0,0,0,0,0,0,0,0,0,0,0,0,0,0,0,0,0,0,0,0,0,0,0,0,0,0,0,0,0,0],"sum_hessian":[3.029E3,1.479E3,1.55E3,7.95E2,6.84E2,8.53E2,6.97E2,5.23E2,2.72E2,1.54E2,5.3E2,6.85E2,1.68E2,2.91E2,4.06E2,4.8E1,4.75E2,2.25E2,4.7E1,1.32E2,2.2E1,3.09E2,2.21E2,2.96E2,3.89E2,8.6E1,8.2E1,1.09E2,1.82E2,3.36E2,7E1,3.3E1,1.5E1,3.94E2,8.1E1,1.06E2,1.19E2,2.2E1,2.5E1,7.5E1,5.7E1,1.9E1,3E0,2.57E2,5.2E1,1.85E2,3.6E1,1.16E2,1.8E2,1.26E2,2.63E2,3.3E1,5.3E1,5E0,7.7E1,9.1E1,1.8E1,5.7E1,1.25E2,1.45E2,1.91E2,3.2E1,3.8E1],"tree_param":{"num_deleted":"0","num_feature":"25","num_nodes":"63","size_leaf_vector":"1"}},{"base_weights":[2.7591001E-2,6.682846E0,-5.6592493E0,1.0435336E1,2.8190215E0,-9.0835285E0,-1.2940985E0,1.1969323E1,6.5226345E0,3.558856E-2,7.5290265E0,-6.8964124E0,-1.3963605E1,2.093915E0,-4.7166386E0,8.984603E0,1.277205E1,3.8411946E0,1.113609E1,-4.816376E0,1.8834592E0,6.039719E0,5.9687656E-1,-4.5900974E0,-1.1351911E1,-1.958262E1,-1.1749509E1,-1.527411E0,4.7709103E0,-7.8980536E0,4.220445E-2,1.1782336E-1,4.967911E-1,5.359063E-1,6.7418426E-1,2.4792574E-2,3.6339113E-1,4.5773616E-1,7.8234833E-1,1.8207417E-1,-2.9102516E-1,-1.18352845E-2,3.864044E-1,3.8467875E-1,1.14875115E-1,-3.301179E-1,-3.7875656E-2,-3.4577474E-1,-7.093074E-1,-7.04446E-1,-1.1889511E0,-7.033479E-1,-3.9793184E-1,-2.959293E-1,4.1424077E-2,1.6638218E-1,5.117182E-1,-2.5196669E-1,-5.935439E-1,-6.049421E-2,4.6178755E-1],"categories":[],"categories_nodes":[],"categories_segments":[],"categories_sizes":[],"default_left":[0,0,0,0,0,0,0,0,0,0,0,0,0,0,0,0,0,0,0,0,0,0,0,0,0,0,0,0,0,0,0,0,0,0,0,0,0,0,0,0,0,0,0,0,0,0,0,0,0,0,0,0,0,0,0,0,0,0,0,0,0],"id":18,"left_children":[1,3,5,7,9,11,13,15,17,19,21,23,25,27,29,31,33,35,37,39,41,43,-1,45,47,49,51,53,55,57,59,-1,-1,-1,-1,-1,-1,-1,-1,-1,-1,-1,-1,-1,-1,-1,-1,-1,-1,-1,-1,-1,-1,-1,-1,-1,-1,-1,-1,-1,-1],"loss_changes":[1.14890664E5,2.0212293E4,2.4432457E4,4.0915312E3,9.059928E3,9.586898E3,8.390638E3,9.8158594E2,2.4261807E3,3.9290723E3,1.5346982E3,6.4306973E3,3.054129E3,3.5437847E3,5.457346E3,6.605908E2,2.87875E2,1.4950524E3,3.7200195E2,1.0666921E3,3.9503252E3,1.1680176E3,0E0,3.2428672E3,2.5115273E3,1.1220527E3,1.5888203E3,1.6267065E3,1.5767437E3,2.3229111E3,1.7080681E3,0E0,0E0,0E0,0E0,0E0,0E0,0E0,0E0,0E0,0E0,0E0,0E0,0E0,0E0,0E0,0E0,0E0,0E0,0E0,0E0,0E0,0E0,0E0,0E0,0E0,0E0,0E0,0E0,0E0,0E0],"parents":[2147483647,0,0,1,1,2,2,3,3,4,4,5,5,6,6,7,7,8,8,9,9,10,10,11,11,12,12,13,13,14,14,15,15,16,16,17,17,18,18,19,19,20,20,21,21,23,23,24,24,25,25,26,26,27,27,28,28,29,29,30,30],"right_children":[2,4,6,8,10,12,14,16,18,20,22,24,26,28,30,32,34,36,38,40,42,44,-1,46,48,50,52,54,56,58,60,-1,-1,-1,-1,-1,-1,-1,-1,-1,-1,-1,-1,-1,-1,-1,-1,-1,-1,-1,-1,-1,-1,-1,-1,-1,-1,-1,-1,-1,-1],"split_conditions":[-4.334286E-1,-6.925006E-1,-2.3218185E-1,-4.511164E-1,1.7877206E-2,1.116752E0,3.6185244E-1,-5.568553E-1,9.14833E-2,-2.093985E-1,1.7292548E0,1.0294904E0,-2.093985E-1,5.310226E-1,4.0220776E-1,2.3914658E-1,-2.4141777E-1,5.310226E-1,2.2179935E0,-3.455639E-1,7.573132E-1,-5.2694726E-1,5.9687656E-1,5.269323E-1,-2.5156757E-2,3.950249E-1,2.212137E-1,-9.1936374E-1,1.4920157E0,9.3084383E-1,1.6673709E0,1.1782336E-1,4.967911E-1,5.359063E-1,6.7418426E-1,2.4792574E-2,3.6339113E-1,4.5773616E-1,7.8234833E-1,1.8207417E-1,-2.9102516E-1,-1.18352845E-2,3.864044E-1,3.8467875E-1,1.14875115E-1,-3.301179E-1,-3.7875656E-2,-3.4577474E-1,-7.093074E-1,-7.04446E-1,-1.1889511E0,-7.033479E-1,-3.9793184E-1,-2.959293E-1,4.1424077E-2,1.6638218E-1,5.117182E-1,-2.5196669E-1,-5.935439E-1,-6.049421E-2,4.6178755E-1],"split_indices":[3,3,10,0,10,0,0,10,10,9,10,20,9,9,8,2,8,9,10,2,1,3,0,1,3,3,8,8,10,3,7,0,0,0,0,0,0,0,0,0,0,0,0,0,0,0,0,0,0,0,0,0,0,0,0,0,0,0,0,0,0],"split_type":[0,0,0,0,0,0,0,0,0,0,0,0,0,0,0,0,0,0,0,0,0,0,0,0,0,0,0,0,0,0,0,0,0,0,0,0,0,0,0,0,0,0,0,0,0,0,0,0,0,0,0,0,0,0,0,0,0,0,0,0,0],"sum_hessian":[3.032E3,1.397E3,1.635E3,7.07E2,6.9E2,9.15E2,7.2E2,5.05E2,2.02E2,4.35E2,2.55E2,6.35E2,2.8E2,3.62E2,3.58E2,1.12E2,3.93E2,1.3E2,7.2E1,1.19E2,3.16E2,1.94E2,6.1E1,4.21E2,2.14E2,7.5E1,2.05E2,1.54E2,2.08E2,2.14E2,1.44E2,1.5E1,9.7E1,1.09E2,2.84E2,6.7E1,6.3E1,5.4E1,1.8E1,1.2E1,1.07E2,2.33E2,8.3E1,1.33E2,6.1E1,2.75E2,1.46E2,8.6E1,1.28E2,3.6E1,3.9E1,1.24E2,8.1E1,5.3E1,1.01E2,1.67E2,4.1E1,1.27E2,8.7E1,1.28E2,1.6E1],"tree_param":{"num_deleted":"0","num_feature":"25","num_nodes":"61","size_leaf_vector":"1"}},{"base_weights":[1.4062534E-1,6.685644E0,-5.1960335E0,9.76388E0,2.4109852E0,-7.2558317E0,1.1215472E0,1.1328992E1,6.741934E0,-3.165215E-1,6.59912E0,-5.588534E0,-1.2219476E1,4.19391E0,-2.9691086E0,5.4356008E0,1.1956058E1,4.3807673E0,1.0595696E1,-4.684603E0,1.4722189E0,3.7637696E0,9.082756E0,-4.202631E0,-1.0408353E1,-1.4473553E1,-7.637657E0,3.24412E0,6.553748E-1,-6.9211645E0,1.6057621E0,-2.3328645E-2,4.028597E-1,6.283501E-1,4.4579968E-1,1.3938962E-1,3.8341796E-1,5.615012E-1,1.22783445E-1,9.1890566E-2,-3.0784824E-1,3.0987246E-2,3.673875E-1,3.0755854E-1,2.5514662E-2,6.287524E-1,3.6907038E-1,-3.6401275E-1,-1.0008645E-1,-3.980107E-1,-7.233371E-1,-6.3629913E-1,-1.0397569E0,-4.6118012E-1,-1.9224128E-1,-1.4179145E-1,2.041295E-1,7.812767E-3,-4.3573648E-1,3.796935E-1,1.3873803E-2],"categories":[],"categories_nodes":[],"categories_segments":[],"categories_sizes":[],"default_left":[0,0,0,0,0,0,0,0,0,0,0,0,0,0,0,0,0,0,0,0,0,0,0,0,0,0,0,0,0,0,0,0,0,0,0,0,0,0,0,0,0,0,0,0,0,0,0,0,0,0,0,0,0,0,0,0,0,0,0,0,0],"id":19,"left_children":[1,3,5,7,9,11,13,15,17,19,21,23,25,27,29,31,33,35,37,39,41,43,45,47,49,51,53,55,-1,57,59,-1,-1,-1,-1,-1,-1,-1,-1,-1,-1,-1,-1,-1,-1,-1,-1,-1,-1,-1,-1,-1,-1,-1,-1,-1,-1,-1,-1,-1,-1],"loss_changes":[1.0480799E5,1.7677922E4,2.1529805E4,3.5432344E3,6.485948E3,1.017407E4,5.149106E3,1.7572188E3,2.3716865E3,2.710317E3,1.4990459E3,6.161367E3,2.9946875E3,1.8831973E3,3.2048728E3,8.3285486E2,6.302422E2,8.4869824E2,4.5957715E2,9.9356836E2,1.21339E3,8.23677E2,5.0889453E2,4.91274E3,1.8303984E3,1.7680312E3,5.6291016E2,1.1122578E3,0E0,1.2160942E3,6.453461E2,0E0,0E0,0E0,0E0,0E0,0E0,0E0,0E0,0E0,0E0,0E0,0E0,0E0,0E0,0E0,0E0,0E0,0E0,0E0,0E0,0E0,0E0,0E0,0E0,0E0,0E0,0E0,0E0,0E0,0E0],"parents":[2147483647,0,0,1,1,2,2,3,3,4,4,5,5,6,6,7,7,8,8,9,9,10,10,11,11,12,12,13,13,14,14,15,15,16,16,17,17,18,18,19,19,20,20,21,21,22,22,23,23,24,24,25,25,26,26,27,27,29,29,30,30],"right_children":[2,4,6,8,10,12,14,16,18,20,22,24,26,28,30,32,34,36,38,40,42,44,46,48,50,52,54,56,-1,58,60,-1,-1,-1,-1,-1,-1,-1,-1,-1,-1,-1,-1,-1,-1,-1,-1,-1,-1,-1,-1,-1,-1,-1,-1,-1,-1,-1,-1,-1,-1],"split_conditions":[-4.334286E-1,-6.6574085E-1,9.14833E-2,-5.091856E-1,-2.1446597E-2,1.2328905E0,4.1992164E-1,1.3283558E-1,3.3045104E-1,-7.5249785E-1,2.1975778E-1,1.0978061E0,1.0773866E-2,2.1272464E0,6.6214E-2,-4.8625082E-1,7.5622755E-1,1.4706974E0,5.3606004E-1,-6.197575E-1,1.422858E0,4.1992164E-1,-4.511164E-1,-7.65388E-1,4.8863274E-1,7.5622755E-1,-3.4047356E-1,-1.61547E0,6.553748E-1,-2.3905642E-1,-1.2155195E0,-2.3328645E-2,4.028597E-1,6.283501E-1,4.4579968E-1,1.3938962E-1,3.8341796E-1,5.615012E-1,1.22783445E-1,9.1890566E-2,-3.0784824E-1,3.0987246E-2,3.673875E-1,3.0755854E-1,2.5514662E-2,6.287524E-1,3.6907038E-1,-3.6401275E-1,-1.0008645E-1,-3.980107E-1,-7.233371E-1,-6.3629913E-1,-1.0397569E0,-4.6118012E-1,-1.9224128E-1,-1.4179145E-1,2.041295E-1,7.812767E-3,-4.3573648E-1,3.796935E-1,1.3873803E-2],"split_indices":[3,3,10,0,10,0,0,2,10,4,1,20,5,10,5,7,20,5,0,3,1,0,0,5,3,20,10,5,0,3,7,0,0,0,0,0,0,0,0,0,0,0,0,0,0,0,0,0,0,0,0,0,0,0,0,0,0,0,0,0,0],"split_type":[0,0,0,0,0,0,0,0,0,0,0,0,0,0,0,0,0,0,0,0,0,0,0,0,0,0,0,0,0,0,0,0,0,0,0,0,0,0,0,0,0,0,0,0,0,0,0,0,0,0,0,0,0,0,0,0,0,0,0,0,0],"sum_hessian":[2.997E3,1.346E3,1.651E3,7.81E2,5.65E2,1.245E3,4.06E2,5.11E2,2.7E2,3.43E2,2.22E2,9.35E2,3.1E2,2.32E2,1.74E2,5.1E1,4.6E2,1.7E2,1E2,9.9E1,2.44E2,1.06E2,1.16E2,7.29E2,2.06E2,2.05E2,1.05E2,2.12E2,2E1,9.3E1,8.1E1,1.6E1,3.5E1,3.78E2,8.2E1,1.17E2,5.3E1,9.2E1,8E0,1.8E1,8.1E1,2.15E2,2.9E1,6E1,4.6E1,3.4E1,8.2E1,3.02E2,4.27E2,1.32E2,7.4E1,1.65E2,4E1,7.2E1,3.3E1,2.5E1,1.87E2,1.9E1,7.4E1,1.3E1,6.8E1],"tree_param":{"num_deleted":"0","num_feature":"25","num_nodes":"61","size_leaf_vector":"1"}},{"base_weights":[-5.1545024E-2,5.200242E0,-3.7070014E0,4.292011E-1,8.78885E0,-7.2183013E0,1.6296768E0,-3.6237984E0,3.8124912E0,7.161081E0,1.1651976E1,-8.935451E0,-5.883835E-1,-1.2957558E-1,7.1771016E0,1.0829064E0,-6.7441025E0,-5.041123E0,4.9388204E0,5.733938E0,1.1543091E1,1.2181808E1,6.665251E0,-7.398691E0,-1.3829481E1,2.779906E0,-4.1808596E0,2.1895177E0,-4.447491E0,5.574456E0,1.1520357E1,-8.519419E-2,2.5556144E-1,-5.4878E-1,-2.044992E-1,-4.9921218E-1,-1.0161131E-1,1.2951954E-1,4.210971E-1,6.1128497E-2,3.630625E-1,5.96226E-1,4.9668252E-2,6.270267E-1,4.488662E-1,4.8464257E-1,8.649829E-3,-4.8678038E-1,-2.3285905E-1,-9.6550363E-1,-5.659871E-1,4.7572494E-2,4.7475156E-1,1.1571983E-1,-2.832226E-1,-4.4969153E-2,2.2956538E-1,-4.554061E-1,-1.2625754E-1,2.2015357E-1,5.081017E-1,5.9735405E-1,1.7059879E-1],"categories":[],"categories_nodes":[],"categories_segments":[],"categories_sizes":[],"default_left":[0,0,0,0,0,0,0,0,0,0,0,0,0,0,0,0,0,0,0,0,0,0,0,0,0,0,0,0,0,0,0,0,0,0,0,0,0,0,0,0,0,0,0,0,0,0,0,0,0,0,0,0,0,0,0,0,0,0,0,0,0,0,0],"id":20,"left_children":[1,3,5,7,9,11,13,15,17,19,21,23,25,27,29,31,33,35,37,39,41,43,45,47,49,51,53,55,57,59,61,-1,-1,-1,-1,-1,-1,-1,-1,-1,-1,-1,-1,-1,-1,-1,-1,-1,-1,-1,-1,-1,-1,-1,-1,-1,-1,-1,-1,-1,-1,-1,-1],"loss_changes":[5.631666E4,2.0592887E4,3.2442047E4,7.1391255E3,3.0280703E3,1.18623125E4,6.722592E3,3.4976672E3,2.87477E3,2.629289E3,4.8066797E2,6.023711E3,2.6459895E3,5.265387E3,1.0179746E3,1.0952244E3,1.5048916E3,4.3690326E2,2.0153857E3,2.301371E3,3.929375E2,2.4199219E1,5.3157825E2,3.9680781E3,2.2629922E3,1.3561965E3,1.0471394E3,2.5476401E3,1.591364E3,5.7263477E2,5.6284668E1,0E0,0E0,0E0,0E0,0E0,0E0,0E0,0E0,0E0,0E0,0E0,0E0,0E0,0E0,0E0,0E0,0E0,0E0,0E0,0E0,0E0,0E0,0E0,0E0,0E0,0E0,0E0,0E0,0E0,0E0,0E0,0E0],"parents":[2147483647,0,0,1,1,2,2,3,3,4,4,5,5,6,6,7,7,8,8,9,9,10,10,11,11,12,12,13,13,14,14,15,15,16,16,17,17,18,18,19,19,20,20,21,21,22,22,23,23,24,24,25,25,26,26,27,27,28,28,29,29,30,30],"right_children":[2,4,6,8,10,12,14,16,18,20,22,24,26,28,30,32,34,36,38,40,42,44,46,48,50,52,54,56,58,60,62,-1,-1,-1,-1,-1,-1,-1,-1,-1,-1,-1,-1,-1,-1,-1,-1,-1,-1,-1,-1,-1,-1,-1,-1,-1,-1,-1,-1,-1,-1,-1,-1],"split_conditions":[-2.7690881E-1,-1.7402658E-1,3.2493463E-1,5.310226E-1,2.6377702E-1,9.14833E-2,6.659277E-1,-1.0898776E0,-1.6709102E0,1.0271764E0,7.351229E-1,1.0294904E0,5.9412926E-1,1.116752E0,1.9645315E0,-2.093985E-1,-4.9333224E-1,-2.0405111E0,4.3818083E-2,-2.093985E-1,3.7575606E-1,-4.511164E-1,-9.7373927E-1,-5.621075E-1,-9.317084E-1,1.7292548E0,-1.2155195E0,5.310226E-1,-2.093985E-1,1.2913418E0,7.557997E-2,-8.519419E-2,2.5556144E-1,-5.4878E-1,-2.044992E-1,-4.9921218E-1,-1.0161131E-1,1.2951954E-1,4.210971E-1,6.1128497E-2,3.630625E-1,5.96226E-1,4.9668252E-2,6.270267E-1,4.488662E-1,4.8464257E-1,8.649829E-3,-4.8678038E-1,-2.3285905E-1,-9.6550363E-1,-5.659871E-1,4.7572494E-2,4.7475156E-1,1.1571983E-1,-2.832226E-1,-4.4969153E-2,2.2956538E-1,-4.554061E-1,-1.2625754E-1,2.2015357E-1,5.081017E-1,5.9735405E-1,1.7059879E-1],"split_indices":[0,5,5,9,10,10,10,0,5,5,4,20,0,0,10,9,10,5,10,9,4,0,0,5,5,10,7,9,9,7,4,0,0,0,0,0,0,0,0,0,0,0,0,0,0,0,0,0,0,0,0,0,0,0,0,0,0,0,0,0,0,0,0],"split_type":[0,0,0,0,0,0,0,0,0,0,0,0,0,0,0,0,0,0,0,0,0,0,0,0,0,0,0,0,0,0,0,0,0,0,0,0,0,0,0,0,0,0,0,0,0,0,0,0,0,0,0,0,0,0,0,0,0,0,0,0,0,0,0],"sum_hessian":[2.93E3,1.202E3,1.728E3,5.17E2,6.85E2,1.042E3,6.86E2,2.35E2,2.82E2,4.41E2,2.44E2,8.27E2,2.15E2,5.22E2,1.64E2,9.4E1,1.41E2,3.1E1,2.51E2,3.36E2,1.05E2,2.18E2,2.6E1,6.33E2,1.94E2,1.11E2,1.04E2,3.4E2,1.82E2,1.23E2,4.1E1,5.6E1,3.8E1,5.2E1,8.9E1,1E1,2.1E1,1.52E2,9.9E1,8.6E1,2.5E2,1.01E2,4E0,1.91E2,2.7E1,1.7E1,9E0,3.39E2,2.94E2,5.7E1,1.37E2,8.9E1,2.2E1,1.9E1,8.5E1,1.49E2,1.91E2,5.1E1,1.31E2,1.01E2,2.2E1,3.8E1,3E0],"tree_param":{"num_deleted":"0","num_feature":"25","num_nodes":"63","size_leaf_vector":"1"}},{"base_weights":[-5.5290792E-2,6.996775E0,-4.02668E0,9.334826E0,3.5057201E0,-5.7735567E0,2.7233713E0,5.932492E0,1.0336176E1,-2.530422E-1,6.3411994E0,-3.8866572E0,-1.0876416E1,7.7028054E-1,7.9354E0,7.823089E0,-1.1009148E-1,5.901731E-1,8.927751E0,-3.217835E0,2.4666317E0,2.0684307E0,7.5504456E0,-2.6132617E0,-8.186435E0,-1.6286018E1,-8.728491E0,-2.6594188E0,2.983683E0,6.1705384E0,6.8236125E-1,4.854692E-1,1.12654984E-1,-1.828482E-1,1.5237851E-1,3.034278E-1,4.8957887E-1,-1.8759382E-1,2.1371785E-1,3.827673E-1,2.1782678E-2,-6.653618E-2,2.8080136E-1,2.4121407E-1,4.63152E-1,-8.631649E-3,-2.5399217E-1,-6.0861254E-1,-3.1976494E-1,-5.3875666E-2,-8.403363E-1,-1.2105824E-1,-4.912456E-1,-4.743803E-2,-4.911898E-1,2.3744242E-1,-5.561812E-2,5.333771E-1,2.3378675E-1],"categories":[],"categories_nodes":[],"categories_segments":[],"categories_sizes":[],"default_left":[0,0,0,0,0,0,0,0,0,0,0,0,0,0,0,0,0,0,0,0,0,0,0,0,0,0,0,0,0,0,0,0,0,0,0,0,0,0,0,0,0,0,0,0,0,0,0,0,0,0,0,0,0,0,0,0,0,0,0],"id":21,"left_children":[1,3,5,7,9,11,13,15,17,19,21,23,25,27,29,31,33,-1,35,37,39,41,43,45,47,49,51,53,55,57,-1,-1,-1,-1,-1,-1,-1,-1,-1,-1,-1,-1,-1,-1,-1,-1,-1,-1,-1,-1,-1,-1,-1,-1,-1,-1,-1,-1,-1],"loss_changes":[8.425708E4,8.771949E3,2.2728254E4,2.0771133E3,4.676219E3,1.4636E4,4.0178015E3,1.7449829E3,8.141797E2,1.545597E3,1.2510205E3,6.079795E3,4.4989844E3,2.2222234E3,9.113262E2,1.1629365E3,4.4414536E2,0E0,5.2061523E2,3.9554413E2,1.0359966E3,7.1559467E2,8.0747363E2,5.2102637E3,1.6566465E3,8.550664E2,2.008834E3,1.3772625E3,1.2994015E3,4.6856592E2,0E0,0E0,0E0,0E0,0E0,0E0,0E0,0E0,0E0,0E0,0E0,0E0,0E0,0E0,0E0,0E0,0E0,0E0,0E0,0E0,0E0,0E0,0E0,0E0,0E0,0E0,0E0,0E0,0E0],"parents":[2147483647,0,0,1,1,2,2,3,3,4,4,5,5,6,6,7,7,8,8,9,9,10,10,11,11,12,12,13,13,14,14,15,15,16,16,18,18,19,19,20,20,21,21,22,22,23,23,24,24,25,25,26,26,27,27,28,28,29,29],"right_children":[2,4,6,8,10,12,14,16,18,20,22,24,26,28,30,32,34,-1,36,38,40,42,44,46,48,50,52,54,56,58,-1,-1,-1,-1,-1,-1,-1,-1,-1,-1,-1,-1,-1,-1,-1,-1,-1,-1,-1,-1,-1,-1,-1,-1,-1,-1,-1,-1,-1],"split_conditions":[-5.4162353E-1,-7.118025E-1,3.929658E-1,-2.093985E-1,-2.8713435E-1,8.3994776E-1,1.4920157E0,-3.34978E-1,-8.5515326E-1,5.310226E-1,-2.093985E-1,6.195961E-1,-2.093985E-1,5.310226E-1,2.3339484E0,4.14649E-1,7.062161E-1,5.901731E-1,-4.964936E-1,1.3460643E0,-6.25324E-1,9.2621386E-1,8.4727675E-2,4.7799084E-1,-2.093985E-1,-1.2060161E0,-5.091856E-1,8.800837E-1,1.0586829E0,-8.5760087E-1,6.8236125E-1,4.854692E-1,1.12654984E-1,-1.828482E-1,1.5237851E-1,3.034278E-1,4.8957887E-1,-1.8759382E-1,2.1371785E-1,3.827673E-1,2.1782678E-2,-6.653618E-2,2.8080136E-1,2.4121407E-1,4.63152E-1,-8.631649E-3,-2.5399217E-1,-6.0861254E-1,-3.1976494E-1,-5.3875666E-2,-8.403363E-1,-1.2105824E-1,-4.912456E-1,-4.743803E-2,-4.911898E-1,2.3744242E-1,-5.561812E-2,5.333771E-1,2.3378675E-1],"split_indices":[3,3,10,9,10,3,10,0,3,9,9,20,9,9,10,20,8,0,10,1,0,10,10,0,9,0,0,3,0,0,0,0,0,0,0,0,0,0,0,0,0,0,0,0,0,0,0,0,0,0,0,0,0,0,0,0,0,0,0],"split_type":[0,0,0,0,0,0,0,0,0,0,0,0,0,0,0,0,0,0,0,0,0,0,0,0,0,0,0,0,0,0,0,0,0,0,0,0,0,0,0,0,0,0,0,0,0,0,0,0,0,0,0,0,0,0,0,0,0,0,0],"sum_hessian":[3.005E3,1.082E3,1.923E3,6.46E2,4.36E2,1.528E3,3.95E2,1.5E2,4.96E2,1.88E2,2.48E2,1.118E3,4.1E2,2.89E2,1.06E2,1.14E2,3.6E1,2.36E2,2.6E2,9E1,9.8E1,5.6E1,1.92E2,8.65E2,2.53E2,1.13E2,2.97E2,1.13E2,1.76E2,8.4E1,2.2E1,8.4E1,3E1,1.7E1,1.9E1,6.4E1,1.96E2,8.5E1,5E0,2.6E1,7.2E1,2.9E1,2.7E1,7.7E1,1.15E2,4.36E2,4.29E2,7.5E1,1.78E2,4E0,1.09E2,4.5E1,2.52E2,9.3E1,2E1,1.23E2,5.3E1,1.8E1,6.6E1],"tree_param":{"num_deleted":"0","num_feature":"25","num_nodes":"59","size_leaf_vector":"1"}},{"base_weights":[-1.4644428E-1,5.177849E0,-5.2028346E0,8.939343E0,2.1753654E0,-7.0909357E0,9.455671E-2,1.0601533E1,6.9208765E0,-5.9892196E-2,6.406099E0,-5.6829615E0,-1.232852E1,-1.2650973E0,5.311822E0,8.416835E0,1.1150238E1,3.0813608E0,8.148606E0,-4.532124E0,1.7200253E0,5.698908E0,7.125005E-1,-8.084847E0,-3.6389875E0,-1.660986E1,-9.680688E0,-5.1024276E-1,-9.814076E0,3.679974E0,5.095666E-1,5.2264035E-1,2.2328857E-1,1.0433894E-1,5.616324E-1,1.3459503E-2,3.3154765E-1,3.066801E-1,5.346041E-1,-4.3054065E-1,-1.2717973E-1,2.4877123E-3,2.9419252E-1,2.2848438E-1,4.7411236E-1,-5.4149973E-1,-3.2621178E-1,-3.035333E-1,-6.5141656E-2,-2.182554E-1,-8.698643E-1,-6.975201E-1,-3.977958E-1,-6.8040684E-2,1.866771E-1,-7.3139334E-1,-1.3871388E-1,-0E0,2.964072E-1],"categories":[],"categories_nodes":[],"categories_segments":[],"categories_sizes":[],"default_left":[0,0,0,0,0,0,0,0,0,0,0,0,0,0,0,0,0,0,0,0,0,0,0,0,0,0,0,0,0,0,0,0,0,0,0,0,0,0,0,0,0,0,0,0,0,0,0,0,0,0,0,0,0,0,0,0,0,0,0],"id":22,"left_children":[1,3,5,7,9,11,13,15,17,19,21,23,25,27,29,31,33,35,37,39,41,43,-1,45,47,49,51,53,55,57,-1,-1,-1,-1,-1,-1,-1,-1,-1,-1,-1,-1,-1,-1,-1,-1,-1,-1,-1,-1,-1,-1,-1,-1,-1,-1,-1,-1,-1],"loss_changes":[8.013521E4,1.6325445E4,1.5280668E4,2.0035508E3,7.656949E3,8.1543555E3,2.8742847E3,2.2571484E2,1.3356953E3,4.242682E3,1.3819756E3,4.30626E3,2.3634531E3,2.0487954E3,5.8311475E2,5.23917E2,1.4558203E2,7.351651E2,1.0036387E3,1.1783789E3,2.6407087E3,1.0150654E3,0E0,1.5990508E3,2.7309546E3,6.837422E2,8.844678E2,1.077639E3,7.8038354E2,5.427524E2,0E0,0E0,0E0,0E0,0E0,0E0,0E0,0E0,0E0,0E0,0E0,0E0,0E0,0E0,0E0,0E0,0E0,0E0,0E0,0E0,0E0,0E0,0E0,0E0,0E0,0E0,0E0,0E0,0E0],"parents":[2147483647,0,0,1,1,2,2,3,3,4,4,5,5,6,6,7,7,8,8,9,9,10,10,11,11,12,12,13,13,14,14,15,15,16,16,17,17,18,18,19,19,20,20,21,21,23,23,24,24,25,25,26,26,27,27,28,28,29,29],"right_children":[2,4,6,8,10,12,14,16,18,20,22,24,26,28,30,32,34,36,38,40,42,44,-1,46,48,50,52,54,56,58,-1,-1,-1,-1,-1,-1,-1,-1,-1,-1,-1,-1,-1,-1,-1,-1,-1,-1,-1,-1,-1,-1,-1,-1,-1,-1,-1,-1,-1],"split_conditions":[-3.737489E-1,-7.118025E-1,-2.4471505E-2,-8.393689E-1,9.003066E-2,1.3855096E0,1.3115295E0,-2.093985E-1,-2.093985E-1,-2.093985E-1,2.712062E0,5.310226E-1,5.4748034E-1,1.9895552E0,2.1272464E0,-9.069845E-1,-7.2842795E-1,-3.3344567E-2,-4.4013685E-1,-9.238775E-1,7.573132E-1,9.876941E-1,7.125005E-1,-9.238775E-1,-1.6421038E-1,-1.432314E0,-2.093985E-1,1.2692708E0,5.310226E-1,6.2908566E-1,5.095666E-1,5.2264035E-1,2.2328857E-1,1.0433894E-1,5.616324E-1,1.3459503E-2,3.3154765E-1,3.066801E-1,5.346041E-1,-4.3054065E-1,-1.2717973E-1,2.4877123E-3,2.9419252E-1,2.2848438E-1,4.7411236E-1,-5.4149973E-1,-3.2621178E-1,-3.035333E-1,-6.5141656E-2,-2.182554E-1,-8.698643E-1,-6.975201E-1,-3.977958E-1,-6.8040684E-2,1.866771E-1,-7.3139334E-1,-1.3871388E-1,-0E0,2.964072E-1],"split_indices":[3,3,10,3,10,3,10,9,9,9,10,9,4,3,10,3,5,10,4,10,1,1,0,10,1,10,9,1,9,9,0,0,0,0,0,0,0,0,0,0,0,0,0,0,0,0,0,0,0,0,0,0,0,0,0,0,0,0,0],"split_type":[0,0,0,0,0,0,0,0,0,0,0,0,0,0,0,0,0,0,0,0,0,0,0,0,0,0,0,0,0,0,0,0,0,0,0,0,0,0,0,0,0,0,0,0,0,0,0,0,0,0,0,0,0,0,0,0,0,0,0],"sum_hessian":[2.973E3,1.448E3,1.525E3,6.41E2,8.07E2,1.124E3,4.01E2,3.47E2,2.94E2,5.29E2,2.78E2,8.89E2,2.35E2,3.19E2,8.2E1,7.6E1,2.71E2,7.3E1,2.21E2,1.5E2,3.79E2,2.58E2,2E1,4.06E2,4.83E2,8.6E1,1.49E2,2.95E2,2.4E1,6.4E1,1.8E1,4.8E1,2.8E1,3E0,2.68E2,4.2E1,3.1E1,1.27E2,9.4E1,4.7E1,1.03E2,2.72E2,1.07E2,2.02E2,5.6E1,1.43E2,2.63E2,2.35E2,2.48E2,6E0,8E1,3.9E1,1.1E2,2.47E2,4.8E1,1.3E1,1.1E1,2.5E1,3.9E1],"tree_param":{"num_deleted":"0","num_feature":"25","num_nodes":"59","size_leaf_vector":"1"}},{"base_weights":[-1.14078894E-1,6.335883E0,-3.7083735E0,8.35025E0,3.837463E0,2.4168035E-1,-5.7944E0,4.040345E0,9.686093E0,1.1271806E0,5.9219227E0,-5.0667124E0,2.0715659E0,-3.6098018E0,-9.869916E0,-3.5006428E-1,5.749849E0,7.0228705E0,1.037519E1,2.2516873E0,-3.5413291E0,1.8415368E0,7.254694E0,-9.3076E0,-1.3487709E0,3.2705436E0,-2.8924127E0,-2.4124088E0,-8.88978E0,-1.5138827E1,-8.090398E0,3.0379308E-2,-2.4092482E-1,1.9722739E-1,4.977141E-1,4.1647038E-1,1.1126288E-1,4.3819323E-1,5.4293704E-1,1.9197509E-2,2.4578921E-1,-2.943021E-1,7.3941606E-3,1.6524635E-1,-2.2204892E-1,4.127446E-1,1.7158802E-1,-3.4771213E-1,-7.8730893E-1,-1.8297449E-1,4.9381685E-2,2.2402374E-2,2.4865735E-1,-1.8104888E-2,-3.2666394E-1,-2.426766E-1,-2.5331466E-2,-5.696345E-1,-3.270931E-1,-8.549137E-1,-5.3897995E-1,-3.254885E-1,-7.09557E-1],"categories":[],"categories_nodes":[],"categories_segments":[],"categories_sizes":[],"default_left":[0,0,0,0,0,0,0,0,0,0,0,0,0,0,0,0,0,0,0,0,0,0,0,0,0,0,0,0,0,0,0,0,0,0,0,0,0,0,0,0,0,0,0,0,0,0,0,0,0,0,0,0,0,0,0,0,0,0,0,0,0,0,0],"id":23,"left_children":[1,3,5,7,9,11,13,15,17,19,21,23,25,27,29,31,33,35,37,39,41,43,45,47,49,51,53,55,57,59,61,-1,-1,-1,-1,-1,-1,-1,-1,-1,-1,-1,-1,-1,-1,-1,-1,-1,-1,-1,-1,-1,-1,-1,-1,-1,-1,-1,-1,-1,-1,-1,-1],"loss_changes":[6.969961E4,5.341918E3,1.5918816E4,3.3318047E3,2.7127422E3,6.511856E3,1.117177E4,1.0893821E3,6.771172E2,1.1299568E3,1.448584E3,2.6734497E3,2.9861895E3,5.168716E3,3.8752773E3,1.8919324E2,7.005144E2,5.732749E2,8.160156E1,8.50067E2,3.7002863E2,6.6678076E2,7.180752E2,9.8480664E2,5.161168E2,1.9251763E3,8.8845355E2,3.133128E3,7.3639746E2,5.6411914E2,3.0180645E3,0E0,0E0,0E0,0E0,0E0,0E0,0E0,0E0,0E0,0E0,0E0,0E0,0E0,0E0,0E0,0E0,0E0,0E0,0E0,0E0,0E0,0E0,0E0,0E0,0E0,0E0,0E0,0E0,0E0,0E0,0E0,0E0],"parents":[2147483647,0,0,1,1,2,2,3,3,4,4,5,5,6,6,7,7,8,8,9,9,10,10,11,11,12,12,13,13,14,14,15,15,16,16,17,17,18,18,19,19,20,20,21,21,22,22,23,23,24,24,25,25,26,26,27,27,28,28,29,29,30,30],"right_children":[2,4,6,8,10,12,14,16,18,20,22,24,26,28,30,32,34,36,38,40,42,44,46,48,50,52,54,56,58,60,62,-1,-1,-1,-1,-1,-1,-1,-1,-1,-1,-1,-1,-1,-1,-1,-1,-1,-1,-1,-1,-1,-1,-1,-1,-1,-1,-1,-1,-1,-1,-1,-1],"split_conditions":[-5.4162353E-1,-5.091856E-1,-4.463199E-2,1.5941334E-1,5.310226E-1,-2.093985E-1,5.7189715E-1,-2.093985E-1,-2.093985E-1,4.14649E-1,-6.761679E-1,-2.666019E-1,5.5128044E-1,6.195961E-1,-2.093985E-1,1.1661218E0,2.0910582E-1,4.14649E-1,-9.577446E-1,6.037259E-1,1.9175946E0,5.5128044E-1,4.14649E-1,4.14649E-1,5.5253017E-1,-8.863841E-1,1.8942976E-1,5.310226E-1,5.310226E-1,-2.9672384E-1,4.14649E-1,3.0379308E-2,-2.4092482E-1,1.9722739E-1,4.977141E-1,4.1647038E-1,1.1126288E-1,4.3819323E-1,5.4293704E-1,1.9197509E-2,2.4578921E-1,-2.943021E-1,7.3941606E-3,1.6524635E-1,-2.2204892E-1,4.127446E-1,1.7158802E-1,-3.4771213E-1,-7.8730893E-1,-1.8297449E-1,4.9381685E-2,2.2402374E-2,2.4865735E-1,-1.8104888E-2,-3.2666394E-1,-2.426766E-1,-2.5331466E-2,-5.696345E-1,-3.270931E-1,-8.549137E-1,-5.3897995E-1,-3.254885E-1,-7.09557E-1],"split_indices":[3,0,0,2,9,9,3,9,9,20,1,1,20,20,9,20,4,20,1,1,20,20,20,20,1,8,3,9,9,8,20,0,0,0,0,0,0,0,0,0,0,0,0,0,0,0,0,0,0,0,0,0,0,0,0,0,0,0,0,0,0,0,0],"split_type":[0,0,0,0,0,0,0,0,0,0,0,0,0,0,0,0,0,0,0,0,0,0,0,0,0,0,0,0,0,0,0,0,0,0,0,0,0,0,0,0,0,0,0,0,0,0,0,0,0,0,0,0,0,0,0,0,0,0,0,0,0,0,0],"sum_hessian":[3.003E3,1.074E3,1.929E3,5.92E2,4.82E2,6.67E2,1.262E3,1.42E2,4.5E2,2.11E2,2.71E2,1.7E2,4.97E2,8.24E2,4.38E2,4E1,1.02E2,9.7E1,3.53E2,1.71E2,4E1,6.8E1,2.03E2,7.8E1,9.2E1,4.01E2,9.6E1,6.74E2,1.5E2,1.07E2,3.31E2,3.4E1,6E0,7.4E1,2.8E1,7.5E1,2.2E1,9E1,2.63E2,1.02E2,6.9E1,2.4E1,1.6E1,5.6E1,1.2E1,1.59E2,4.4E1,6E1,1.8E1,4.6E1,4.6E1,1.52E2,2.49E2,5.8E1,3.8E1,2.94E2,3.8E2,6.9E1,8.1E1,7E1,3.7E1,2.66E2,6.5E1],"tree_param":{"num_deleted":"0","num_feature":"25","num_nodes":"63","size_leaf_vector":"1"}},{"base_weights":[-2.9931923E-2,5.7581234E0,-2.9634547E0,-1.5720333E-1,7.350688E0,-7.120704E0,2.4844098E-1,-5.5494666E0,1.8336533E0,3.9563751E0,8.365139E0,-8.8438635E0,-1.4862365E0,-1.7520524E0,5.7998524E0,6.0867465E-1,-8.322558E0,2.6828483E-1,5.327662E0,6.185537E0,1.2986755E-1,6.9336824E0,1.0100175E1,-7.127454E0,-1.3160855E1,-6.7107344E0,8.948748E-1,-3.1129248E0,2.58272E0,4.8547373E0,6.4578706E-1,-1.918952E-1,1.1237849E-1,-2.8965282E-1,-7.5687826E-1,1.4415914E-1,-9.953766E-2,-1.4290658E-2,3.2351825E-1,1.000736E-1,4.058883E-1,-1.0774602E-1,3.1357175E-1,4.4929075E-1,2.4543945E-1,5.186649E-1,3.3628783E-1,-5.7318085E-1,-2.7438527E-1,-2.5748655E-1,-7.1109116E-1,-1.4294237E-1,-5.254209E-1,1.6444114E-1,-9.891421E-2,-9.619015E-2,-3.731279E-1,-1.62862E-2,2.8329283E-1,3.1579494E-1,9.173784E-2],"categories":[],"categories_nodes":[],"categories_segments":[],"categories_sizes":[],"default_left":[0,0,0,0,0,0,0,0,0,0,0,0,0,0,0,0,0,0,0,0,0,0,0,0,0,0,0,0,0,0,0,0,0,0,0,0,0,0,0,0,0,0,0,0,0,0,0,0,0,0,0,0,0,0,0,0,0,0,0,0,0],"id":24,"left_children":[1,3,5,7,9,11,13,15,17,19,21,23,25,27,29,31,33,35,37,39,41,43,45,47,49,51,53,55,57,59,-1,-1,-1,-1,-1,-1,-1,-1,-1,-1,-1,-1,-1,-1,-1,-1,-1,-1,-1,-1,-1,-1,-1,-1,-1,-1,-1,-1,-1,-1,-1],"loss_changes":[5.0979125E4,9.523574E3,2.6620596E4,2.3394365E3,2.6658672E3,8.399195E3,1.2525791E4,1.0225082E3,8.592545E2,1.5843613E3,1.3705039E3,4.732797E3,2.5779631E3,4.904259E3,1.8753418E3,1.5791032E2,5.203699E2,6.718222E2,3.2377942E2,9.1097363E2,1.02274414E3,1.3200723E3,1.0439453E2,3.2779043E3,1.4326367E3,8.7779443E2,9.9548987E2,3.2307178E3,1.7923953E3,1.1466636E3,0E0,0E0,0E0,0E0,0E0,0E0,0E0,0E0,0E0,0E0,0E0,0E0,0E0,0E0,0E0,0E0,0E0,0E0,0E0,0E0,0E0,0E0,0E0,0E0,0E0,0E0,0E0,0E0,0E0,0E0,0E0],"parents":[2147483647,0,0,1,1,2,2,3,3,4,4,5,5,6,6,7,7,8,8,9,9,10,10,11,11,12,12,13,13,14,14,15,15,16,16,17,17,18,18,19,19,20,20,21,21,22,22,23,23,24,24,25,25,26,26,27,27,28,28,29,29],"right_children":[2,4,6,8,10,12,14,16,18,20,22,24,26,28,30,32,34,36,38,40,42,44,46,48,50,52,54,56,58,60,-1,-1,-1,-1,-1,-1,-1,-1,-1,-1,-1,-1,-1,-1,-1,-1,-1,-1,-1,-1,-1,-1,-1,-1,-1,-1,-1,-1,-1,-1,-1],"split_conditions":[-5.091856E-1,-7.65388E-1,-1.7402658E-1,-2.093985E-1,-2.093985E-1,-2.4471505E-2,3.8922065E-1,-1.3802236E0,3.929658E-1,1.0020863E-1,4.7277498E-1,1.1748213E0,-1.0425887E0,1.1750166E0,2.5870323E0,-8.8460904E-1,4.14649E-1,-5.7917124E-1,-8.400368E-1,-7.706179E-3,7.2268075E-1,-2.997037E-1,-6.25324E-1,-2.093985E-1,-9.5614314E-1,-6.5178245E-1,4.1992164E-1,1.349029E0,5.310226E-1,8.844753E-1,6.4578706E-1,-1.918952E-1,1.1237849E-1,-2.8965282E-1,-7.5687826E-1,1.4415914E-1,-9.953766E-2,-1.4290658E-2,3.2351825E-1,1.000736E-1,4.058883E-1,-1.0774602E-1,3.1357175E-1,4.4929075E-1,2.4543945E-1,5.186649E-1,3.3628783E-1,-5.7318085E-1,-2.7438527E-1,-2.5748655E-1,-7.1109116E-1,-1.4294237E-1,-5.254209E-1,1.6444114E-1,-9.891421E-2,-9.619015E-2,-3.731279E-1,-1.62862E-2,2.8329283E-1,3.1579494E-1,9.173784E-2],"split_indices":[0,5,5,9,9,10,10,0,10,4,5,0,5,5,10,4,20,4,4,5,10,4,0,9,10,4,0,0,9,0,0,0,0,0,0,0,0,0,0,0,0,0,0,0,0,0,0,0,0,0,0,0,0,0,0,0,0,0,0,0,0],"split_type":[0,0,0,0,0,0,0,0,0,0,0,0,0,0,0,0,0,0,0,0,0,0,0,0,0,0,0,0,0,0,0,0,0,0,0,0,0,0,0,0,0,0,0,0,0,0,0,0,0,0,0,0,0,0,0,0,0,0,0,0,0],"sum_hessian":[2.999E3,1.008E3,1.991E3,2.14E2,7.94E2,8.67E2,1.124E3,5.7E1,1.57E2,1.85E2,6.09E2,6.63E2,2.04E2,8.27E2,2.97E2,1.8E1,3.9E1,1.1E2,4.7E1,1.16E2,6.9E1,3.39E2,2.7E2,4.78E2,1.85E2,6.3E1,1.41E2,6.3E2,1.97E2,2.65E2,3.2E1,4E0,1.4E1,3.1E1,8E0,5.1E1,5.9E1,8E0,3.9E1,3.8E1,7.8E1,5.1E1,1.8E1,1.65E2,1.74E2,2.46E2,2.4E1,1.28E2,3.5E2,2.3E1,1.62E2,3.3E1,3E1,7.7E1,6.4E1,4.97E2,1.33E2,1.02E2,9.5E1,1.77E2,8.8E1],"tree_param":{"num_deleted":"0","num_feature":"25","num_nodes":"61","size_leaf_vector":"1"}},{"base_weights":[6.014301E-2,3.38705E0,-4.192159E0,1.8085833E-1,7.0194726E0,-7.822271E0,-5.053785E-1,-1.6212317E0,3.5949302E0,8.914791E0,3.9476888E0,-6.0437965E0,-1.1400135E1,-1.6933113E0,4.2406316E0,9.2811596E-1,-3.7298176E0,5.258495E0,7.082485E-1,9.385877E0,6.736215E0,1.4178513E0,7.0781674E0,-8.199366E0,-4.07897E0,-1.3505759E1,-6.831804E0,-1.9240558E-2,-4.9370537E0,5.176112E0,-9.378462E-1,6.81561E-4,3.5604423E-1,-3.3757773E-1,-1.0280734E-1,3.242723E-1,-5.1331925E-3,-1.9732876E-2,3.3088604E-1,1.9436403E-1,4.7383824E-1,6.141113E-2,4.128657E-1,2.3903142E-1,3.3832606E-2,2.9853588E-1,5.0661176E-1,-4.8239046E-1,-1.375246E-1,-2.4998163E-1,-6.450798E-3,-1.875867E-1,-7.2660744E-1,-1.0193028E-1,-4.4530484E-1,-6.6722184E-2,1.7003696E-1,1.9220596E-2,-3.064966E-1,2.0773546E-1,4.7934443E-1,-2.6052386E-1,8.178091E-2],"categories":[],"categories_nodes":[],"categories_segments":[],"categories_sizes":[],"default_left":[0,0,0,0,0,0,0,0,0,0,0,0,0,0,0,0,0,0,0,0,0,0,0,0,0,0,0,0,0,0,0,0,0,0,0,0,0,0,0,0,0,0,0,0,0,0,0,0,0,0,0,0,0,0,0,0,0,0,0,0,0,0,0],"id":25,"left_children":[1,3,5,7,9,11,13,15,17,19,21,23,25,27,29,31,33,35,37,39,41,43,45,47,49,51,53,55,57,59,61,-1,-1,-1,-1,-1,-1,-1,-1,-1,-1,-1,-1,-1,-1,-1,-1,-1,-1,-1,-1,-1,-1,-1,-1,-1,-1,-1,-1,-1,-1,-1,-1],"loss_changes":[4.31843E4,1.9936758E4,1.7914008E4,5.622677E3,4.595129E3,4.1488945E3,3.7692478E3,3.2230781E3,1.5026646E3,3.7466016E2,2.4252324E3,1.8512871E3,1.9430469E3,2.8979812E3,6.6199976E2,1.5305197E3,1.6222554E3,1.3231187E3,7.799413E2,1.18453125E2,7.6461523E2,4.20823E2,3.3785352E2,1.6326416E3,8.7200806E2,1.3796328E3,6.8794165E2,1.6015681E3,1.1651772E3,4.2450415E2,2.5933112E2,0E0,0E0,0E0,0E0,0E0,0E0,0E0,0E0,0E0,0E0,0E0,0E0,0E0,0E0,0E0,0E0,0E0,0E0,0E0,0E0,0E0,0E0,0E0,0E0,0E0,0E0,0E0,0E0,0E0,0E0,0E0,0E0],"parents":[2147483647,0,0,1,1,2,2,3,3,4,4,5,5,6,6,7,7,8,8,9,9,10,10,11,11,12,12,13,13,14,14,15,15,16,16,17,17,18,18,19,19,20,20,21,21,22,22,23,23,24,24,25,25,26,26,27,27,28,28,29,29,30,30],"right_children":[2,4,6,8,10,12,14,16,18,20,22,24,26,28,30,32,34,36,38,40,42,44,46,48,50,52,54,56,58,60,62,-1,-1,-1,-1,-1,-1,-1,-1,-1,-1,-1,-1,-1,-1,-1,-1,-1,-1,-1,-1,-1,-1,-1,-1,-1,-1,-1,-1,-1,-1,-1,-1],"split_conditions":[2.4571402E-1,1.0625784E-1,6.6214E-2,-1.001064E-1,-5.091856E-1,1.2909597E0,1.4337373E0,-7.9953164E-1,-5.6725484E-1,3.1415863E0,8.6085594E-1,-7.7080786E-1,-2.392529E-1,1.2909597E0,3.1415863E0,1.2913418E0,-1.171949E0,3.606328E0,8.79336E-1,1.3283558E-1,-8.701535E-1,-9.5597076E-1,7.1527004E-1,8.2542E-1,6.6439056E-1,-1.0129449E0,-9.509038E-1,7.1527004E-1,-1.0129449E0,9.381022E-1,1.5261376E0,6.81561E-4,3.5604423E-1,-3.3757773E-1,-1.0280734E-1,3.242723E-1,-5.1331925E-3,-1.9732876E-2,3.3088604E-1,1.9436403E-1,4.7383824E-1,6.141113E-2,4.128657E-1,2.3903142E-1,3.3832606E-2,2.9853588E-1,5.0661176E-1,-4.8239046E-1,-1.375246E-1,-2.4998163E-1,-6.450798E-3,-1.875867E-1,-7.2660744E-1,-1.0193028E-1,-4.4530484E-1,-6.6722184E-2,1.7003696E-1,1.9220596E-2,-3.064966E-1,2.0773546E-1,4.7934443E-1,-2.6052386E-1,8.178091E-2],"split_indices":[0,2,5,5,0,0,5,0,0,16,5,2,2,0,16,7,5,11,5,2,4,7,7,7,2,7,4,7,7,7,5,0,0,0,0,0,0,0,0,0,0,0,0,0,0,0,0,0,0,0,0,0,0,0,0,0,0,0,0,0,0,0,0],"split_type":[0,0,0,0,0,0,0,0,0,0,0,0,0,0,0,0,0,0,0,0,0,0,0,0,0,0,0,0,0,0,0,0,0,0,0,0,0,0,0,0,0,0,0,0,0,0,0,0,0,0,0,0,0,0,0,0,0,0,0,0,0,0,0],"sum_hessian":[3.049E3,1.711E3,1.338E3,9.1E2,8.01E2,6.73E2,6.65E2,5.96E2,3.14E2,4.93E2,3.08E2,4.53E2,2.2E2,5.33E2,1.32E2,2.7E2,3.26E2,1.98E2,1.16E2,4E2,9.3E1,1.72E2,1.36E2,2.13E2,2.4E2,1.48E2,7.2E1,3.53E2,1.8E2,1.12E2,2E1,2.37E2,3.3E1,1.14E2,2.12E2,1.61E2,3.7E1,9.9E1,1.7E1,8E0,3.92E2,2.1E1,7.2E1,2.9E1,1.43E2,1.04E2,3.2E1,1.67E2,4.6E1,1.94E2,4.6E1,1.5E1,1.33E2,2.3E1,4.9E1,2.56E2,9.7E1,3.3E1,1.47E2,9.4E1,1.8E1,7E0,1.3E1],"tree_param":{"num_deleted":"0","num_feature":"25","num_nodes":"63","size_leaf_vector":"1"}},{"base_weights":[4.353415E-2,4.712001E0,-2.3769705E0,1.944969E0,7.6426864E0,-4.0645375E0,3.5441546E0,3.2341158E0,-3.545744E0,8.233158E0,3.2881424E0,-8.905234E0,-2.557726E0,-2.1528692E0,4.939361E0,-3.4584253E0,4.0513325E0,-6.3190575E0,1.6292472E0,8.813354E0,5.237187E0,1.8744718E0,9.010444E0,-1.3690858E1,-7.6444836E0,-1.796719E-1,-4.890116E0,-3.363264E-1,-7.5696783E0,4.0754576E0,6.319008E-1,4.258411E-3,-3.873404E-1,1.5664928E-1,4.2895246E-1,-3.778669E-1,-0E0,2.6450315E-1,-1.6121154E-1,4.5388284E-1,3.1455287E-1,8.117567E-2,3.186705E-1,1.3742857E-1,-2.927428E-1,1.6294429E-1,5.084125E-1,-7.676259E-1,-3.4216234E-1,-2.3143068E-1,-4.8802647E-1,-7.3151074E-2,2.1748953E-1,-3.0709642E-1,-3.789009E-2,-5.3126413E-2,3.7746876E-1,-1.3681126E-1,-5.244834E-1,3.0133387E-1,9.3287565E-2],"categories":[],"categories_nodes":[],"categories_segments":[],"categories_sizes":[],"default_left":[0,0,0,0,0,0,0,0,0,0,0,0,0,0,0,0,0,0,0,0,0,0,0,0,0,0,0,0,0,0,0,0,0,0,0,0,0,0,0,0,0,0,0,0,0,0,0,0,0,0,0,0,0,0,0,0,0,0,0,0,0],"id":26,"left_children":[1,3,5,7,9,11,13,15,17,19,21,23,25,27,29,31,33,35,37,39,41,43,45,47,49,51,53,55,57,59,-1,-1,-1,-1,-1,-1,-1,-1,-1,-1,-1,-1,-1,-1,-1,-1,-1,-1,-1,-1,-1,-1,-1,-1,-1,-1,-1,-1,-1,-1,-1],"loss_changes":[3.4045137E4,8.304588E3,1.9849268E4,3.7845269E3,1.2199766E3,1.1213047E4,3.5261938E3,2.3875552E3,1.4851797E3,6.610625E2,4.6455377E2,1.9930566E3,6.541701E3,8.4987036E2,2.2469707E3,7.367639E2,1.5417275E3,5.1956885E2,6.870315E2,1.21291016E2,2.830088E2,3.8196625E2,2.8189087E0,6.239824E2,1.7763594E3,3.4189912E3,3.0653438E3,3.9491858E2,2.4014233E2,1.3577686E3,0E0,0E0,0E0,0E0,0E0,0E0,0E0,0E0,0E0,0E0,0E0,0E0,0E0,0E0,0E0,0E0,0E0,0E0,0E0,0E0,0E0,0E0,0E0,0E0,0E0,0E0,0E0,0E0,0E0,0E0,0E0],"parents":[2147483647,0,0,1,1,2,2,3,3,4,4,5,5,6,6,7,7,8,8,9,9,10,10,11,11,12,12,13,13,14,14,15,15,16,16,17,17,18,18,19,19,20,20,21,21,22,22,23,23,24,24,25,25,26,26,27,27,28,28,29,29],"right_children":[2,4,6,8,10,12,14,16,18,20,22,24,26,28,30,32,34,36,38,40,42,44,46,48,50,52,54,56,58,60,-1,-1,-1,-1,-1,-1,-1,-1,-1,-1,-1,-1,-1,-1,-1,-1,-1,-1,-1,-1,-1,-1,-1,-1,-1,-1,-1,-1,-1,-1,-1],"split_conditions":[-5.091856E-1,-2.3239726E-1,3.8922065E-1,1.0978061E0,6.795592E-1,-6.984569E-1,-3.7688744E-1,-1.7014515E0,4.0001327E-1,7.5622755E-1,1.1857438E0,-1.6411321E0,7.1026766E-1,6.5219843E-1,2.5870323E0,-1.0898776E0,1.2811544E0,3.1415863E0,-9.7373927E-1,-6.25324E-1,3.1415863E0,-6.25324E-1,8.2738036E-1,-1.7051575E-1,3.0378324E-1,1.0221899E0,1.3188193E0,1.5394957E0,-6.769048E-1,5.9412926E-1,6.319008E-1,4.258411E-3,-3.873404E-1,1.5664928E-1,4.2895246E-1,-3.778669E-1,-0E0,2.6450315E-1,-1.6121154E-1,4.5388284E-1,3.1455287E-1,8.117567E-2,3.186705E-1,1.3742857E-1,-2.927428E-1,1.6294429E-1,5.084125E-1,-7.676259E-1,-3.4216234E-1,-2.3143068E-1,-4.8802647E-1,-7.3151074E-2,2.1748953E-1,-3.0709642E-1,-3.789009E-2,-5.3126413E-2,3.7746876E-1,-1.3681126E-1,-5.244834E-1,3.0133387E-1,9.3287565E-2],"split_indices":[0,8,10,20,4,8,8,8,7,20,10,8,0,0,10,0,10,16,0,0,16,0,4,10,0,8,8,7,4,0,0,0,0,0,0,0,0,0,0,0,0,0,0,0,0,0,0,0,0,0,0,0,0,0,0,0,0,0,0,0,0],"split_type":[0,0,0,0,0,0,0,0,0,0,0,0,0,0,0,0,0,0,0,0,0,0,0,0,0,0,0,0,0,0,0,0,0,0,0,0,0,0,0,0,0,0,0,0,0,0,0,0,0,0,0,0,0,0,0,0,0,0,0,0,0],"sum_hessian":[3.009E3,1.027E3,1.982E3,5.3E2,4.97E2,1.543E3,4.39E2,4.3E2,1E2,4.36E2,6.1E1,3.64E2,1.179E3,8.6E1,3.53E2,4.6E1,3.84E2,6.5E1,3.5E1,3.62E2,7.4E1,5.1E1,1E1,7.2E1,2.92E2,5.85E2,5.94E2,6.6E1,2E1,3.2E2,3.3E1,2.6E1,2E1,3.22E2,6.2E1,5.4E1,1.1E1,2E1,1.5E1,3.23E2,3.9E1,1.9E1,5.5E1,4.7E1,4E0,3E0,7E0,5.6E1,1.6E1,1.23E2,1.69E2,4.57E2,1.28E2,4.55E2,1.39E2,6.2E1,4E0,9E0,1.1E1,1.68E2,1.52E2],"tree_param":{"num_deleted":"0","num_feature":"25","num_nodes":"61","size_leaf_vector":"1"}},